tree
version=v4
num_class=1
num_tree_per_iteration=1
label_index=0
max_feature_idx=58
objective=regression
feature_names=rv_60s rv_300s rv_900s rv_3600s rv_ratio_5m_1m rv_ratio_15m_5m rv_ratio_1h_15m rv_term_structure momentum_60s momentum_300s momentum_900s range_60s range_300s range_900s reversals_60s jump_detected autocorr_lag1_300s autocorr_lag5_300s hurst_300s time_remaining iv_staleness_seconds moneyness ema_12s ema_60s ema_300s ema_900s ema_cross_12_60 ema_cross_60_300 ema_cross_300_900 price_vs_ema_900 iv_rv_ratio_300s iv_rv_ratio_900s drawdown_from_high_15m runup_from_low_15m time_since_high_15m time_since_low_15m skewness_300s kurtosis_300s downside_vol_300s upside_vol_300s vol_asymmetry_300s tail_risk_300s hour_of_day_utc hour_sin hour_cos is_us_hours is_asia_hours is_europe_hours vol_persistence_ar1 vol_acceleration_300s vol_of_vol_300s garch_forecast_simple jump_count_300s jump_direction_300s jump_intensity_300s autocorr_lag10_300s autocorr_lag30_300s autocorr_lag60_300s autocorr_decay
feature_infos=[0:3.4433660507202148] [0:1.0441491603851318] [0:0.36588579416275024] [8.7059219367802143e-05:0.098291017115116119] [0:28051651180888064] [0.33296230435371399:11466310] [0.24989691376686096:40.258739471435547] [-0.98307746648788452:6940462065647616] [-0.027305025607347488:0.01824444904923439] [-0.064259238541126251:0.065228484570980072] [-0.052833434194326401:0.046659413725137711] [0:0.03200831264257431] [0:0.092180326581001282] [0:0.10839308053255081] [0:58] [0:1] [-0.68337643146514893:0.8610263466835022] [-0.89986759424209595:0.73077517747879028] [0.15831179916858673:0.93051320314407349] [1:900] [0:300] [-0.046891935169696808:0.035120043903589249] [26576.63671875:124122.8671875] [26568.044921875:124262.53125] [26577.7890625:124362.2109375] [26605.947265625:124215.2734375] [-1.2185710668563843:0.58427542448043823] [-1.4050496816635132:1.0796902179718018] [-1.9730502367019653:2.3073134422302246] [-2.8309800624847412:2.2413873672485352] [1.2065311670303345:1528433920] [2.7469403743743896:10675.712890625] [0:7.7824516296386719] [0:7.4316501617431641] [0:7.7824516296386719] [0:7.4316501617431641] [-17.233785629272461:17.233785629272461] [-0.59030920267105103:295.00335693359375] [0:1.2605029344558716] [0:1.2123458385467529] [-1:1] [0:0.029867816716432571] [0:23] [-1:1] [-1:1] [0:1] [0:1] [0:1] [-0.0048926221206784248:0.99930697679519653] [-99.999992370605469:17508.6796875] [1.0244867176822936e-09:1.5328803062438965] [0:1.0743273496627808] [0:299] [-0.00088747014524415135:0.0014386100228875875] [0:299] [-0.70828169584274292:1.0331032276153564] [-0.87764585018157959:0.85082954168319702] [-0.8265417218208313:0.97009402513504028] [-0.016223974525928497:0.01600450836122036]
tree_sizes=3483 3513 3462 3512 3475 3479 3502 3489 3498 3494 3540 3496 3490 3514 3526 3503 3520 3510 3533 3526 3553 3522 3492 3516 3502 3528 3508 3535 3518 3513 3511 3484 3491 3504 3520 3515 3521 3520 3515 3498 3473 3483 3514 3504 3504 3520 3532 3505 3468 3455 3540 3454 3513 3497 3384 3498 3468 3489 3501 3502 3478 3465 3363 3432 3524 3433 3486 3500 3480 3449 3536 3386 3479 3469 3463 3494 3442 3376 3469 3366 3465 3326 3476 3359 3298 3450 3290 3418 3408 3464 3275 3455 3286 3196 3391 3347 3213 3490 3135 3199 3456 3189 3142 3237 3366 3123 3473 3412 3193 3241 3183 3367 3154 3347 3130 3214 3397 3446 3142 3293 3148 3162 3217 3162 3141 3273 3127 3307 3335 3162 3131 3372 3199 3170 3436 3272 3245 3282 3131 3424 3341 3233 3102 3122 3226 3140 3196 3151 3237 3283 3168 3170 3393 3275 3509 3216 3157 3258 3156 3217 3326 3196 3177 3271 3120 3281 3113 3164 3318 3201 3139 3299 3384 3171 3220 3261 3226 3125 3269 3102 3130 3157 3338 3270 3151 3257 3371 3277 3223 3306 3112 3301 3283 3277 3111 3287 3106 3209 3126 3371 3167 3471 3094 3269 3329 3178 3303 3112 3291 3274 3309 3270 3088 3211 3251 3162 3177 3236 3324 3274 3143 3262 3162 3051 3098 3260 3161 3099 3363 3231 3294 3074 3188 3206 3133 3237 3247 3325 3282 3218 3112 3219 3313 3296 3149 3177 3146 3097 3303 3227 3149 3069 3173 3307 3195 3363 3154 3127 3284 3251 3170 3186 3228 3259 3376 3119 3141 3102 3108 3351 3378 3221 3121 3269 3118 3336 3158 3177 3093 3220 3158 3233 3025 3267 3157 3265 3247 3359 3194 3097 3219 3295 3318 3110 3239 3395 3228 3121 3099 3115 3295 3117 3295 3341 3192 3259 3228 3144 3267 3275 3223 3208 3280 3179 3169 3250 3076 3116 3104 3274 3188 3233 3181 3106 3084 3215 3137 3271 3188 3192 3230 3171 3221 3241 3299 3126 3218 3236 3259 3129 3221 3197 3292 3392 3141 3191 3356 3165 3187 3414 3130 3221 3229 3136 3194 3172 3221 3113 3317 3248 3086 3266 3277 3168 3279 3248 3080 3264 3223 3112 3161 3122 3299 3211 3198 3205 3120 3267 3251 3139 3232 3335 3247 3168 3209 3229 3130 3292 3272 3246 3097 3155 3098 3255 3115 3269 3188 3387 3200 3298 3201 3357 3215 3235 3145 3264 3109 3247 3182 3178 3254 3105 3256 3239 3104 3239 3181 3195 3087 3249 3185 3142 3259 3329 3100 3127 3160 3092 3131 3324 3254 3226 3170 3200 3282 3204 3125 3134 3306 3133 3136 3138 3132 3327 3240 3173 3108 3295 3193 3245 3173 3131 3223 3185 3239 3134 3328 3214 3235 3101 3151 3204 3187 3293 3154 3300 3145 3209 3240 3212 3161 3125 3114 3134 3277 3127 3243 3199 3164 3240 3179 3139 3258 3399 3210 3165 3381 3216 3222 3154 3146 3145 3243 3135 3191 3119 3088 3098 3300 3146 3286 3150 3147 3321 3194 3368 3231 3285 3208 3163 3215 3221 3360 3163 3208 3240 3288 3120 3112 3251 3139 3189 3233 3242 3181 3188 3376 3234 3155 3294 3209 3296 3424 3157 3148 3145 3037 3276 3064 3131 3242 3301 3238 3284 3127 3259 3117 3213 3214 3177 3231 3214 3339 3222 3223 3210 3256 3143 3115 3191 3174 3184 3219 3180 3166 3211 3222 3220 3127 3250 3153 3435 3134 3162 3207 3250 3240 3121 3085 3122 3126 3188 3241 3152 3179 3028 3131 3359 3165 3122 3150 3231 3250 3145 3210 3301 3191 3170 3160 3204 3163 3273 3292 3492 3347 3068 3286 3180 3295 3302 3187 3243 3166 3186 3228 3127 3170 3189 3297 3120 3338 3255 3191 3139 3131 3126 3167 3221 3180 3177 3206 3290 3211 3160 3151 3264 3105 3289 3261 3103 3389 3275 3207 3176 3166 3217 3209 3119 3113 3178 3220 3242 3120 3298 3182 3184 3296 3198 3188 3167 3209 3226 3088 3202 3205 3204 3271 3212 3175 3229 3117 3189 3217 3216 3187 3254 3130 3289 3224 3152 3180 3215 3231 3074 3154 3189 3152 3125 3067 3259 3155 3259 3142 3110 3513 3224 3190 3147 3112 3164 3169 3103 3308 3128 3195 3219 3153 3188 3206 3156 3250 3174 3150 3128 3115 3123 3160 3181 3196 3096 3147 3131 3250 3138 3209 3223 3212 3169 3246 3148 3249 3138 3224 3229 3124 3263 3159 3234 3170 3172 3169 3244 3112 3466 3486 3087 3255 3162 3246 3066 3270 3207 3194 3166 3171 3162 3266 3146 3279 3156 3382 3284 3066 3249 3071 3310 3099 3089 3082 3214 3239 3217 3209 3417 3057 3144 3097 3143 3190 3142 3197 3160 3189 3136 3081 3171 3158 3189 3270 3253 3168 3208 3081 3122 3194 3203 3335 3098 3164 3101 3157 3109 3197 3213 3179 3222 3103 3125 3230 3448 3155 3307 3172 3135 3140 3208 3445 3122 3275 3140 3136 3192 3261 3131 3119 3258 3178 3301 3281 3223 3226 3290 3152 3152 3090 3114 3145 3159 3359 3131 3239 3253 3217 3240 3149 3243 3203 3147 3197 3154 3266 3204 3106 3107 3100 3197 3066 3164 3250 3091 3220 3149 3118 3129 3202 3310 3205 3199 3289 3174 3163 3144 3212 3171 3222 3252 3221 3301 3218 3147 3249 3232 3234 3183 3189 3226 3304 3190 3346 3201 3219 3221 3211 3172 3165 3124 3077 3221 3187 3228 3206 3331 3191 3121 3192 3184 3229 3179 3298 3273 3147 3259 3198 3108 3183 3095 3212 3190 3127 3087 3142 3172 3202 3308 3187 3152 3216 3126 3116 3259 3317 3247 3115 3236 3044 3194 3116 3205 3208 3307 3239 3230 3169 3066 3161 3153 3270 3175 3288 3175 3257 3186 3173 3172 3132 3179 3186 3249 3144 3208 3291 3175 3226 3147 3164 3085 3164 3245 3429 3169 3120 3193 3194 3256 3162 3315 3121 3173 3097 3125 3181 3264 3092 3134 3078 3203 3109 3207 3288 3242 3174 3177 3141 3124 3220 3188 3134 3098 3229 3174

Tree=0
num_leaves=31
num_cat=0
split_feature=27 33 32 31 19 19 31 32 19 33 33 19 26 33 31 32 19 31 30 32 19 33 19 26 19 10 32 28 31 19
split_gain=70562 16160.3 15053.4 9410.61 8108.83 6014 5982.96 2752.28 2650.06 2315.18 2220.47 3836.78 1694.88 1628.47 1554.13 1414.32 3603.07 1640.14 1306.14 1305.17 1239.82 1201.73 1318.41 1151.69 1124.13 1325.96 1027.4 1018.89 1007.23 945.509
threshold=-1.0000000180025095e-35 0.04566722363233567 0.043206995353102691 73.615715026855483 693.50000000000011 657.50000000000011 65.679214477539077 1.0000000180025095e-35 603.50000000000011 0.0063910186290740975 0.08583355695009233 406.50000000000006 -0.00014827913400949908 0.051557978615164764 121.89215469360353 0.084191884845495238 426.50000000000006 49.338191986083991 28.357669830322269 0.097764447331428542 711.50000000000011 0.11547620594501497 684.50000000000011 2.8568470042955599e-05 296.50000000000006 -0.00015006335161160675 0.060903776437044151 0.070345290005207076 113.26248931884767 64.500000000000014
decision_type=2 2 2 10 2 2 8 2 2 2 2 2 2 2 10 2 2 8 8 2 2 2 2 2 2 8 2 2 10 2
left_child=1 3 4 8 6 9 27 14 18 28 11 -4 -7 -9 -8 16 -3 -17 -1 20 -12 22 -19 -6 25 -23 -11 -2 -5 -15
right_child=2 15 10 5 23 12 7 13 -10 26 19 -13 -14 29 -16 17 -18 21 -20 -21 -22 24 -24 -25 -26 -27 -28 -29 -30 -31
leaf_value=0.00044181528214023665 0.0051745223120669114 0.0052293240071797295 -0.0020399003379348627 -0.0050408467039635019 -3.8032055738672918e-05 -0.0017308799569889532 0.0083774710574207704 0.0038342317314383032 0.0018027205854259799 -0.0012858057137845481 0.0043649732111531673 0.0031521674787560227 0.0027322099686789042 0.0041725760023780837 0.012046209000673307 0.0016740772618657558 0.00015207168821085282 -0.0014649205816244454 -0.0020723813218510704 0.0023236044650360851 0.001685971679455186 -0.0012433644689030816 0.001553308323724174 0.0032974413306946439 0.00017261934794280927 0.0053310394002449683 -0.0042284824177036195 0.0028063474572208461 -0.0076108134314451853 0.0076401274789545072
leaf_weight=789656 1439151 649484 645353 809905 320141 800950 848466 391065 1080196 380408 2144733 793056 289627 216652 437677 2548797 756315 1554974 1493999 3135305 540737 106608 471557 1350337 785500 273220 1347801 663698 720895 2127582
leaf_count=789656 1439151 649484 645353 809905 320141 800950 848466 391065 1080196 380408 2144733 793056 289627 216652 437677 2548797 756315 1554974 1493999 3135305 540737 106608 471557 1350337 785500 273220 1347801 663698 720895 2127582
internal_value=0.00180754 -0.000636657 0.00422023 -0.00222377 0.00574605 -0.00375963 0.0065883 0.0077184 -0.000237836 -0.00483514 0.00258183 0.000822714 -0.000545587 0.00682139 0.00962604 0.00107638 0.00249777 0.0007283 -0.00120303 0.00301654 0.00382553 -2.69223e-05 -0.000762621 0.00265819 0.00125251 0.00348567 -0.00358079 0.0044271 -0.00625118 0.00731968
internal_weight=2.99138e+07 1.48599e+07 1.5054e+07 7.71344e+06 7.79477e+06 4.34959e+06 6.12429e+06 4.02144e+06 3.36385e+06 3.25901e+06 7.25918e+06 1.43841e+06 1.09058e+06 2.7353e+06 1.28614e+06 7.14646e+06 1.4058e+06 5.74066e+06 2.28366e+06 5.82078e+06 2.68547e+06 3.19186e+06 2.02653e+06 1.67048e+06 1.16533e+06 379828 1.72821e+06 2.10285e+06 1.5308e+06 2.34423e+06
internal_count=29913845 14859892 15053953 7713437 7794769 4349586 6124291 4021442 3363851 3259009 7259184 1438409 1090577 2735299 1286143 7146455 1405799 5740656 2283655 5820775 2685470 3191859 2026531 1670478 1165328 379828 1728209 2102849 1530800 2344234
is_linear=0
shrinkage=1


Tree=1
num_leaves=31
num_cat=0
split_feature=29 30 32 19 33 19 30 19 8 32 29 10 19 30 19 32 19 33 29 30 8 30 30 10 33 30 10 10 53 10
split_gain=74611 12787.3 10121.2 9014.18 7433.13 6724.45 4333.08 2722.9 2574.86 2464.6 2058.33 1900.74 1660.93 1656.37 1631.04 1686.8 1603.71 1270.83 1150.02 1021.04 925.775 871.649 816.985 806.6 787.505 1139.71 775.669 1405.75 759.996 746.32
threshold=0.00073122532921843242 30.166317939758304 0.028104417026042942 644.50000000000011 0.026060683652758602 651.50000000000011 36.749401092529304 621.50000000000011 -4.5901670091552651e-06 0.076399043202400221 -0.024462411180138584 0.00019707537285285073 64.500000000000014 46.056941986083991 64.500000000000014 1.0000000180025095e-35 641.50000000000011 1.0000000180025095e-35 0.0086477664299309271 71.586215972900405 4.5850947572034792e-06 23.937966346740726 24.755153656005863 -0.00046421901788562531 0.068040404468774809 34.131565093994148 1.0000000180025095e-35 -0.00048003288975451136 -1.6653258171572812e-05 1.0000000180025095e-35
decision_type=2 8 2 2 2 2 8 2 8 2 2 10 2 10 2 2 2 2 2 8 10 8 10 10 2 10 10 8 8 8
left_child=1 16 5 4 12 6 -2 9 -5 24 -6 -9 26 -14 29 19 21 -15 -17 -16 -7 -1 -22 -18 -4 -26 27 -3 -10 -8
right_child=2 3 7 8 10 20 14 11 28 -11 -12 -13 13 17 15 18 23 -19 -20 -21 22 -23 -24 -25 25 -27 -28 -29 -30 -31
leaf_value=-6.8649572713758294e-05 0.0025410390749043255 -0.0015688905791901007 0.00074637976701063169 -0.0022683038576797169 -0.0038513211076239315 -0.00071373098261920539 -0.0066345477970433664 0.0020830009058480509 -0.00074315720371785122 0.00093113720969386238 -0.0015688963254450413 -0.00082310423535913264 -0.0047561865337925691 -0.0086863324519743344 0.0066361368513180906 0.0012456659616706183 0.002000749302863728 -0.0061964165061139725 0.0057454134059491211 0.0097137847891188706 -0.0018594090890905026 -0.0017505101284064192 0.0024081861375193467 -0.0011435742437083953 0.0019009144897614719 0.0040341033750216602 0.0070666857767673402 -0.0091988688956595576 0.0018680652057942002 0.0032589498170376621
leaf_weight=1733167 1317966 261763 354208 1812829 2318868 434877 20224 804598 483029 2918412 1720920 1871057 1069873 837450 706037 154727 952040 1321405 1728229 436115 124892 1386822 1097865 259549 987251 1712277 18933 78459 658523 328853
leaf_count=1733167 1317966 261763 354208 1812829 2318868 434877 20224 804598 483029 2918412 1720920 1871057 1069873 837450 706037 154727 952040 1321405 1728229 436115 124892 1386822 1097865 259549 987251 1712277 18933 78459 658523 328853
internal_value=-8.73019e-07 -0.0025051 0.00248933 -0.00344181 -0.00435002 0.00400515 0.00497227 0.00137631 -0.00109696 0.00197017 -0.00287904 5.07878e-05 -0.00600625 -0.00636506 0.00592189 0.00629533 -0.000216706 -0.00716234 0.00537568 0.00781139 0.00126758 -0.000816241 0.00197226 0.00132714 0.00296314 0.00325399 -0.00278049 -0.00332874 0.000763151 0.00268552
internal_weight=2.99112e+07 1.49136e+07 1.49976e+07 1.05821e+07 7.62767e+06 6.34978e+06 4.69215e+06 8.6478e+06 2.95438e+06 5.97215e+06 4.03979e+06 2.67566e+06 3.58788e+06 3.22873e+06 3.37418e+06 3.02511e+06 4.33158e+06 2.15886e+06 1.88296e+06 1.14215e+06 1.65763e+06 3.11999e+06 1.22276e+06 1.21159e+06 3.05374e+06 2.69953e+06 359155 340222 1.14155e+06 349077
internal_count=29911218 14913630 14997588 10582052 7627671 6349785 4692151 8647803 2954381 5972148 4039788 2675655 3587883 3228728 3374185 3025108 4331578 2158855 1882956 1142152 1657634 3119989 1222757 1211589 3053736 2699528 359155 340222 1141552 349077
is_linear=0
shrinkage=0.05


Tree=2
num_leaves=31
num_cat=0
split_feature=21 31 31 19 19 31 31 31 31 21 21 19 28 28 26 21 19 21 19 21 19 21 21 19 19 19 19 28 19 19
split_gain=147466 19640 16988.3 7514.09 6276.61 5265.19 3853.94 3091.92 2811.94 2660.73 2369.17 1855.47 1297.69 1157.36 1128.61 1425.66 1085.89 1079.29 1611.7 1054.87 1077.36 1028.92 1161.91 1275.03 1123.6 1025.81 979.771 939.729 936.786 929.967
threshold=1.0000000180025095e-35 69.463336944580092 60.078289031982429 589.50000000000011 582.50000000000011 45.095693588256843 106.45384216308595 104.82751846313478 40.846387863159187 0.00040007024654187267 -0.0003643197269411757 585.50000000000011 -0.029809007421135899 0.062695086002349867 -7.198162620625225e-06 0.00026429054560139781 128.50000000000003 -0.00017227487842319531 136.50000000000003 -0.00018224573432235045 88.500000000000014 0.001971823396161199 0.00023223840980790558 116.50000000000001 40.500000000000007 40.500000000000007 48.500000000000007 0.046138819307088859 520.50000000000011 180.50000000000003
decision_type=2 10 8 2 2 10 8 8 8 2 2 2 2 2 2 2 2 2 2 2 2 2 2 2 2 2 2 2 2 2
left_child=1 5 8 7 6 12 21 19 13 -6 -5 -7 28 -2 15 16 -8 25 -19 26 -21 22 23 -4 -24 -9 -3 -10 -1 -23
right_child=2 3 4 10 9 11 14 17 27 -11 -12 -13 -14 -15 -16 -17 -18 18 -20 20 -22 29 24 -25 -26 -27 -28 -29 -30 -31
leaf_value=-6.5818397818447915e-05 0.0011223476752467857 -0.0025039717364680274 0.0085591179114039694 -0.0049203288982728882 0.0016698345509466217 -0.0034723353560920261 0.010065668657379921 -0.0039769457247949141 0.0029861603336062267 0.004697477860488704 -0.0018157748863121049 -0.0014309494466481654 -0.0013773733996751795 -0.0011664621051204107 0.008790099949350939 0.0078102853941573319 0.00064518438162687944 -0.012363940516713457 -0.0041305860143477958 -0.010324445810119355 -0.0019154116745000276 0.00079787566412616604 0.0021188529467213095 0.0023242815433796638 0.0060741022311776001 -0.009016591271424278 -0.006123947548777999 0.0013748878701130354 0.0023255292634787391 0.004807400694054653
leaf_weight=1202272 1248333 203671 98564 1064732 1566345 3143151 38284 108757 2277008 1352097 1453445 1723596 1183542 990580 1155368 393857 152097 73407 312424 43301 316182 245898 192320 487920 2713024 1418271 2278436 1501871 621087 351181
leaf_count=1202272 1248333 203671 98564 1064732 1566345 3143151 38284 108757 2277008 1352097 1453445 1723596 1183542 990580 1155368 393857 152097 73407 312424 43301 316182 245898 192320 487920 2713024 1418271 2278436 1501871 621087 351181
internal_value=2.79546e-06 -0.00346346 0.00355862 -0.00533686 0.00496539 -0.00173306 0.00591316 -0.00650651 0.00151385 0.00307254 -0.00312846 -0.00274937 -8.81124e-05 0.00010968 0.00788437 0.00609306 0.00254012 -0.00806064 -0.00569738 -0.00546029 -0.00292864 0.0050745 0.00540249 0.00337227 0.0058123 -0.00865771 -0.00582693 0.00234579 0.000748736 0.00315622
internal_weight=2.9911e+07 1.51463e+07 1.47647e+07 7.27263e+06 8.74696e+06 7.87365e+06 5.82851e+06 4.75445e+06 6.01779e+06 2.91844e+06 2.51818e+06 4.86675e+06 3.0069e+06 2.23891e+06 1.73961e+06 584238 190381 1.91286e+06 385831 2.84159e+06 359483 4.08891e+06 3.49183e+06 586484 2.90534e+06 1.52703e+06 2.48211e+06 3.77888e+06 1.82336e+06 597079
internal_count=29911021 15146274 14764747 7272626 8746955 7873648 5828513 4754449 6017792 2918442 2518177 4866747 3006901 2238913 1739606 584238 190381 1912859 385831 2841590 359483 4088907 3491828 586484 2905344 1527028 2482107 3778879 1823359 597079
is_linear=0
shrinkage=0.05


Tree=3
num_leaves=31
num_cat=0
split_feature=29 31 31 32 33 29 31 30 29 31 31 53 31 53 31 26 33 53 31 9 32 29 26 32 29 53 31 9 32 33
split_gain=60748.9 13636.3 9115.01 5365.91 4458.46 3552.54 3445.4 2052.52 1897.42 1148.07 1107.59 1053.07 1011.77 885.413 874.126 636.265 776.986 628.016 441.595 419.577 415.135 408.01 375.32 532.766 341.33 373.39 337.133 332.63 307.849 302.6
threshold=-1.0000000180025095e-35 73.615715026855483 66.936397552490249 1.0000000180025095e-35 1.0000000180025095e-35 0.018944242969155315 45.723463058471687 21.053031921386722 -0.022818394936621186 106.45384216308595 115.52716064453126 1.2204743597976632e-05 96.186046600341811 -1.9259798136772585e-05 120.46824645996095 1.0000000180025095e-35 0.05340568162500859 1.5366273146355528e-05 203.15800476074222 -0.00060837893397547294 0.010853099636733534 0.055655799806118018 7.6412993621488584e-06 0.01928365416824818 -0.21253023296594617 -1.0048157037090276e-05 53.434480667114265 -0.00051964388694614161 0.057440513744950301 0.061380514875054366
decision_type=2 10 8 2 2 2 10 8 2 10 8 8 8 10 10 2 2 10 10 10 2 2 2 2 2 8 10 10 2 2
left_child=1 6 7 9 14 22 24 -2 12 -4 17 28 19 -8 -3 16 -10 -7 -11 -6 -17 -12 -5 -24 -1 -26 -13 -14 -9 -15
right_child=2 4 3 5 8 10 13 11 15 18 21 26 27 29 -16 20 -18 -19 -20 -21 -22 -23 23 -25 25 -27 -28 -29 -30 -31
leaf_value=0.0013155030700512853 -0.00069410140767894673 -0.0055159240242420408 0.0047784699699438826 0.00023474478345143253 -0.0040919507286014591 0.0023135900884087971 -0.0023820734051537371 0.0014340364294643721 -0.0040008060222306062 0.006836617973611625 0.0044316677540000736 0.0014698044934468681 -0.0059238845618549071 -0.0016907007175031555 -0.0080892913240116042 0.0068513386779277584 -0.0012505116757595717 0.0037183107795300454 0.0098357804352306663 -0.0024595813148440009 -0.0012891051802359542 0.0067782623248619535 0.0039676715427147064 0.0010691550967226442 -0.00050173269457967921 0.00074450014818901796 0.0024366898904324991 -0.0043746070387085867 0.00019215464677204024 -0.00062214115101031113
leaf_weight=707412 1466139 808901 855935 903857 783264 1307190 2676274 717981 670876 579288 568813 1895723 670555 1192111 557701 15938 416128 2034134 155884 791786 869667 274898 197386 805609 1316774 1105745 1719624 717700 1636447 1491706
leaf_count=707412 1466139 808901 855935 903857 783264 1307190 2676274 717981 670876 579288 568813 1895723 670555 1192111 557701 15938 416128 2034134 155884 791786 869667 274898 197386 805609 1316774 1105745 1719624 717700 1636447 1491706
internal_value=1.20124e-06 -0.00227683 0.00223006 0.00343784 -0.00403878 0.00276252 -0.000968846 0.00098213 -0.00333901 0.0060234 0.00357755 0.00139381 -0.00413885 -0.00173854 -0.00656617 -0.00213743 -0.00294798 0.00316877 0.00747271 -0.00327139 -0.0011425 0.00519634 0.000973727 0.00163963 0.000349264 6.70936e-05 0.00192971 -0.00512299 0.000570881 -0.00109679
internal_weight=2.99114e+07 1.47925e+07 1.51189e+07 7.68299e+06 6.30252e+06 6.09189e+06 8.49002e+06 7.43591e+06 4.93591e+06 1.59111e+06 4.18504e+06 5.96978e+06 2.9633e+06 5.36009e+06 1.3666e+06 1.97261e+06 1.087e+06 3.34132e+06 735172 1.57505e+06 885605 843711 1.90685e+06 1.003e+06 3.12993e+06 2.42252e+06 3.61535e+06 1.38826e+06 2.35443e+06 2.68382e+06
internal_count=29911446 14792538 15118908 7682994 6302516 6091887 8490022 7435914 4935914 1591107 4185035 5969775 2963305 5360091 1366602 1972609 1087004 3341324 735172 1575050 885605 843711 1906852 1002995 3129931 2422519 3615347 1388255 2354428 2683817
is_linear=0
shrinkage=0.05


Tree=4
num_leaves=31
num_cat=0
split_feature=21 31 31 19 31 19 31 21 31 31 21 19 21 19 28 19 2 28 21 19 21 28 26 28 19 21 28 21 21 19
split_gain=126241 17988.4 13312 6587.44 5206.63 4880.07 3031.31 2637.27 2376.98 2272.43 1898.16 1797.62 1327.62 1632.6 1191.86 1086.71 1049.99 1049.61 1021.63 1326.1 1097.37 1010.48 986.941 902.195 876.089 851.804 839.63 814.65 794.39 865.708
threshold=-1.0000000180025095e-35 73.615715026855483 60.078289031982429 596.50000000000011 45.723463058471687 549.50000000000011 110.15357208251955 0.00036440213443711405 40.846387863159187 115.52716064453126 -0.00063901377143338312 564.50000000000011 0.00027434097137302166 208.50000000000003 -0.11102198064327239 44.500000000000007 0.0042086350731551656 0.058675860986113555 0.0001715237813186832 56.500000000000007 0.00065744304447434853 0.0055980405304580936 1.0000000180025095e-35 -0.041625294834375375 60.500000000000007 0.0020295449066907172 0.046138819307088859 1.0000000180025095e-35 -0.00028610169829335058 96.500000000000014
decision_type=2 10 10 2 10 2 10 2 8 10 2 2 2 2 2 2 10 2 2 2 2 2 2 2 2 2 2 2 2 2
left_child=1 4 8 6 14 9 18 21 17 -3 -7 23 13 27 -1 -14 -12 -2 24 20 -20 -5 -15 -6 -4 -21 -10 -8 -25 -30
right_child=2 5 3 7 11 10 12 -9 26 -11 16 -13 15 22 -16 -17 -18 -19 19 25 -22 -23 -24 28 -26 -27 -28 -29 29 -31
leaf_value=0.0015422109078633769 0.0010957350409055353 -0.0055354255320728581 0.0095634448261180272 0.0023368956041511821 -0.0024512491475810571 -0.0059107514441899666 -0.0061808671101315632 0.0041619113892837709 0.0027457627368801286 -0.0080666779738772076 -0.0042914043569058057 -0.0015384588895110559 0.0029138588547820586 0.00010116447420411696 -0.00072644854016459034 0.0086027029863031471 -0.0017164656850126988 -0.0010675615856284757 0.0065399815073554904 0.0055742772431022561 0.00047691229334452783 -0.00010935710720141683 0.0054040600302145214 -0.0046329981772511861 0.0019119791745754852 0.0033372443011398267 0.0012324020893042559 0.010303151029928032 -0.0076005888410575874 -0.0012989983686225806
leaf_weight=771443 1225372 2589456 40762 915768 1383843 607295 7898 1363019 2327905 1348615 623446 1980619 91286 146335 2319821 1047943 1084936 1033688 102654 3005292 273333 783134 219159 1575066 454297 495863 1511860 144157 63843 372335
leaf_count=771443 1225372 2589456 40762 915768 1383843 607295 7898 1363019 2327905 1348615 623446 1980619 91286 146335 2319821 1047943 1084936 1033688 102654 3005292 273333 783134 219159 1575066 454297 495863 1511860 144157 63843 372335
internal_value=2.16911e-06 -0.00329749 0.00319995 0.00441232 -0.00179535 -0.00533123 0.0053715 0.00252365 0.00139278 -0.00640229 -0.00350974 -0.00273558 0.00719285 0.00509261 -0.00016028 0.00814691 -0.00265618 0.000105854 0.00468131 0.00495443 0.00213248 0.00120925 0.00328104 -0.00343394 0.00254221 0.00525747 0.00214991 0.00944643 -0.00411006 -0.00222157
internal_weight=2.99104e+07 1.47207e+07 1.51897e+07 9.0909e+06 8.46697e+06 6.25375e+06 6.02898e+06 3.06192e+06 6.09882e+06 3.93807e+06 2.31568e+06 5.37571e+06 1.65678e+06 517549 3.09126e+06 1.13923e+06 1.70838e+06 2.25906e+06 4.3722e+06 3.87714e+06 375987 1.6989e+06 365494 3.39509e+06 495059 3.50116e+06 3.83976e+06 152055 2.01124e+06 436178
internal_count=29910443 14720718 15189725 9090900 8466970 6253748 6028979 3061921 6098825 3938071 2315677 5375706 1656778 517549 3091264 1139229 1708382 2259060 4372201 3877142 375987 1698902 365494 3395087 495059 3501155 3839765 152055 2011244 436178
is_linear=0
shrinkage=0.05


Tree=5
num_leaves=31
num_cat=0
split_feature=21 30 30 19 19 30 30 30 21 10 21 10 28 3 21 10 19 19 21 21 19 19 19 21 21 19 19 26 21 19
split_gain=114086 13797.1 12240.2 7812.28 5223.55 3163.49 2688.08 2312.44 1967.88 1826.12 1774.23 1190.7 1167.02 1162.72 1051.01 1259.66 1255.65 1125.72 907.886 1112.23 1104.57 1085.29 889.999 865.565 856.315 1661.52 1250.99 762.027 870.423 899.693
threshold=1.0000000180025095e-35 30.688310623168949 35.795104980468757 596.50000000000011 596.50000000000011 57.97425842285157 19.765160560607914 70.884418487548842 0.00042471414781175559 -0.0019800503505393858 -0.00031957915052771563 0.0014263995108194651 -0.013979515992105005 0.0033963195746764545 -0.00018224573432235045 -0.0014152972726151345 132.50000000000003 88.500000000000014 0.0019160289666615429 0.00023223840980790558 112.50000000000001 196.50000000000003 36.500000000000007 -0.00093227409524843086 -0.00016205569409066808 128.50000000000003 40.500000000000007 -7.198162620625225e-06 0.00022215289936866614 140.50000000000003
decision_type=2 8 8 2 2 8 10 8 2 8 2 8 2 8 2 8 2 2 2 2 2 2 2 2 2 2 2 2 2 2
left_child=1 9 6 5 7 14 -2 18 -6 -1 13 -8 -12 -5 15 16 -3 -16 19 20 -4 -20 -21 -15 26 -26 -7 28 29 -9
right_child=2 3 4 10 8 24 11 27 -10 -11 12 -13 -14 23 17 -17 -18 -19 21 22 -22 -23 -24 -25 25 -27 -28 -29 -30 -31
leaf_value=0.00043408381578557092 -0.00073126389547961213 -0.00067466797372178105 0.0077844709916894423 -0.0051229984091685412 0.0014026426046374685 -0.0027127837625523172 0.0026306372417823562 0.0088289375748277533 0.0040990128070001672 -0.0016034826412548303 0.00078740551179355776 0.0010480516572720028 -0.0019207468957448096 -0.0041383125526323426 -0.0086736120501947657 -0.0051155821714265783 -0.0041097197888771211 -0.0010198906206484815 0.00064821644911142965 0.0017235446705421741 0.0019416950939082354 0.0047148676029820395 0.0054437016932881565 -0.0014214184566640814 -0.010569821049727651 -0.0030005121412306325 -0.0070994182284728176 0.0074328391803465347 0.0064136759931500663 0.00013540975798841966
leaf_weight=1944981 1198111 356672 96257 567684 1620542 176542 2632835 38795 1161851 2529942 590853 2166736 1217463 458561 54398 2450083 1047193 410775 308202 170592 506646 350845 2801545 812851 89185 387510 2052726 1150327 434404 127716
leaf_count=1944981 1198111 356672 96257 567684 1620542 176542 2632835 38795 1161851 2529942 590853 2166736 1217463 458561 54398 2450083 1047193 410775 308202 170592 506646 350845 2801545 812851 89185 387510 2052726 1150327 434404 127716
internal_value=3.70093e-07 -0.0030483 0.00312792 -0.00402544 0.00431859 -0.00500019 0.00138733 0.00515069 0.00252859 -0.00071787 -0.002148 0.0019162 -0.00103587 -0.0032415 -0.00416032 -0.0044313 -0.00323702 -0.00191515 0.0045186 0.00483297 0.00287468 0.00281318 0.00523019 -0.00240137 -0.00634071 -0.0044169 -0.00675205 0.0066789 0.0052355 0.00216145
internal_weight=2.99128e+07 1.51474e+07 1.47654e+07 1.06725e+07 8.76772e+06 7.02508e+06 5.99768e+06 5.98533e+06 2.78239e+06 4.47492e+06 3.64741e+06 4.79957e+06 1.80832e+06 1.8391e+06 4.31912e+06 3.85395e+06 1.40386e+06 465173 4.23409e+06 3.57504e+06 602903 659047 2.97214e+06 1.27141e+06 2.70596e+06 476695 2.22927e+06 1.75124e+06 600915 166511
internal_count=29912823 15147419 14765404 10672496 8767722 7025084 5997682 5985329 2782393 4474923 3647412 4799571 1808316 1839096 4319121 3853948 1403865 465173 4234087 3575040 602903 659047 2972137 1271412 2705963 476695 2229268 1751242 600915 166511
is_linear=0
shrinkage=0.05


Tree=6
num_leaves=31
num_cat=0
split_feature=21 31 31 19 31 19 31 21 30 21 31 19 10 21 19 19 28 2 28 10 19 21 21 21 21 28 26 19 19 21
split_gain=103142 15173.8 11198.4 5434.1 4760.46 3863.89 2639.9 2386.33 2164.83 1925.76 1710.32 1619.83 1209 1149.41 1564.08 1151.66 1051.95 983.008 922.064 885.427 878.739 788.505 917.091 787.013 783.402 827.041 768.342 756.458 740.269 699.641
threshold=-1.0000000180025095e-35 76.549026489257827 59.216365814208991 582.50000000000011 46.037460327148445 520.50000000000011 104.07018280029298 0.00027434097137302166 18.928690910339359 -0.00052472634706646193 126.44764328002931 567.50000000000011 0.0014263995108194651 0.00027434097137302166 204.50000000000003 52.500000000000007 -0.02916737366467714 0.0039515183307230481 0.0055980405304580936 -0.0014152972726151345 496.50000000000006 0.0022260607220232491 0.00015137316222535449 -0.00024249542184406889 -0.00073100085137411941 -0.008115709759294985 1.0000000180025095e-35 104.50000000000001 32.500000000000007 1.0000000180025095e-35
decision_type=2 10 10 2 10 2 10 2 10 2 10 2 10 2 2 2 2 10 2 10 2 2 2 2 2 2 2 2 2 2
left_child=1 4 8 6 16 10 21 18 -2 -7 -3 19 -10 14 29 -15 20 -11 -5 -6 -1 22 -4 -21 -13 -26 -16 -25 -24 -8
right_child=2 5 3 7 11 9 13 -9 12 17 -12 24 -14 15 26 -17 -18 -19 -20 23 -22 -23 28 27 25 -27 -28 -29 -30 -31
leaf_value=-0.00020469439358644615 -0.00088500548038900366 -0.0053294137633364486 0.0021441967477736361 0.0019927855461013152 -0.0022243832179547822 -0.0054021367555360722 -0.0057344505097948108 0.003575591421870106 0.0023410701601486359 -0.0040616120081907216 -0.0077833975926859924 -0.0026994355741273867 0.00075942811484284848 0.0027082510618579888 0.00015712493027918287 0.0076998642447171986 -0.0012679310990854661 -0.0014258587306351642 -0.00050060778505900795 -0.004257213055511043 0.0020190223840572366 0.0022029413891277803 0.0014948261688838573 -0.0066959616458796972 0.00064523238021497434 -0.0018554243422373 0.0046438655088332321 -0.00086008729411941138 0.004857991963713555 0.0092870387925051822
leaf_weight=1220962 1036277 2457469 400570 818125 1465588 795524 8138 1769284 2691566 551758 998732 777215 2192502 127922 162176 1198024 1231520 985836 678072 1802574 698352 458813 172816 66420 613967 716460 231837 338482 3085348 159882
leaf_count=1220962 1036277 2457469 400570 818125 1465588 795524 8138 1769284 2691566 551758 998732 777215 2192502 127922 162176 1198024 1231520 985836 678072 1802574 698352 458813 172816 66420 613967 716460 231837 338482 3085348 159882
internal_value=-7.70091e-07 -0.00298337 0.00288945 0.00397428 -0.00169095 -0.00497725 0.0048669 0.00233263 0.00119066 -0.00340503 -0.00603856 -0.00254317 0.00163106 0.00641508 0.00451989 0.00721834 -0.000127399 -0.00237172 0.000862775 -0.00317719 0.000604409 0.00415702 0.00440205 -0.00380975 -0.00143822 -0.000701403 0.00279723 -0.00181761 0.00467962 0.00855903
internal_weight=2.99122e+07 1.47209e+07 1.51914e+07 9.27101e+06 8.93154e+06 5.78932e+06 6.00553e+06 3.26548e+06 5.92034e+06 2.33312e+06 3.4562e+06 5.78071e+06 4.88407e+06 1.88798e+06 562033 1.32595e+06 3.15083e+06 1.53759e+06 1.4962e+06 3.67306e+06 1.91931e+06 4.11755e+06 3.65873e+06 2.20748e+06 2.10764e+06 1.33043e+06 394013 404902 3.25816e+06 168020
internal_count=29912211 14720859 15191352 9271007 8931540 5789319 6005526 3265481 5920345 2333118 3456201 5780706 4884068 1887979 562033 1325946 3150834 1537594 1496197 3673064 1919314 4117547 3658734 2207476 2107642 1330427 394013 404902 3258164 168020
is_linear=0
shrinkage=0.05


Tree=7
num_leaves=31
num_cat=0
split_feature=21 31 31 19 19 31 31 31 21 31 21 32 19 10 21 19 10 21 19 19 21 19 19 21 19 19 21 19 19 26
split_gain=93194.2 12964.1 10966.8 5230.75 4161.76 3033.55 2438.33 2350.28 2067.09 2057.29 1969.63 996.651 946.066 874.169 862.635 1042.12 854.348 835.386 928.602 776.971 749.606 861.931 854.821 817.88 720.15 697.325 691.517 1406.79 1045.58 766.776
threshold=1.0000000180025095e-35 62.076229095458991 61.23237609863282 560.50000000000011 553.50000000000011 96.186046600341811 114.32283782958986 42.558565139770515 -0.00042397358629386867 41.857059478759773 0.00040007024654187267 0.10104431584477426 617.50000000000011 0.0011665848433040085 0.0017663500038906934 168.50000000000003 -0.0013314629904925821 0.0001715237813186832 60.500000000000007 628.50000000000011 -0.00018224573432235045 60.500000000000007 80.500000000000014 -0.00063901377143338312 476.50000000000006 28.500000000000004 -0.00016205569409066808 132.50000000000003 36.500000000000007 1.0000000180025095e-35
decision_type=2 10 8 2 2 8 8 10 2 10 2 2 2 8 2 2 10 2 2 2 2 2 2 2 2 2 2 2 2 2
left_child=1 7 9 5 6 20 14 16 -5 13 -6 -10 -9 -2 17 -16 24 18 -4 -11 21 23 -22 -3 -1 -19 28 -28 -7 -29
right_child=2 3 4 8 10 26 -8 12 11 19 -12 -13 -14 -15 15 -17 -18 25 -20 -21 22 -23 -24 -25 -26 -27 27 29 -30 -31
leaf_value=6.4820593738796226e-06 0.0012023636010633357 -0.00016734604369774835 0.0098333128675740823 -0.0039465406116971566 0.0013418638309083764 -0.0023323544983380995 0.0066649891914170121 -0.0023617106876445784 -0.0022054247458401783 0.0024098004921185609 0.0038586112052950618 0.00019341870183623894 -0.00068752110498815008 -0.00072470641472176201 0.00027566963525519657 0.004159182443184915 -0.00094120867384942918 0.0013955950489326807 0.0017764218652613539 0.00084630520549230253 -0.0085263626722749519 -0.0045534096209781339 -0.00094574396304847514 -0.0061404645928224066 0.0022712339206346836 0.0050389728634986581 -0.010451789944674848 -0.0052063411314973718 -0.0070930375853024202 -0.00028189644678188478
leaf_weight=876532 1017654 221671 39331 1358540 1639197 123567 1355698 2653418 1298451 2710701 1478761 649586 1237389 1395429 281840 446335 1079322 137963 393572 1124229 42081 2488418 319418 77287 585479 2743723 79117 176853 1737143 142954
leaf_count=876532 1017654 221671 39331 1358540 1639197 123567 1355698 2653418 1298451 2710701 1478761 649586 1237389 1395429 281840 446335 1079322 137963 393572 1124229 42081 2488418 319418 77287 585479 2743723 79117 176853 1737143 142954
internal_value=-4.12041e-06 -0.00275953 0.00282273 -0.00401618 0.00398992 -0.00497397 0.00482993 -0.00105684 -0.00244953 0.00123176 0.0025355 -0.0014055 -0.00182928 8.79757e-05 0.00421454 0.00265613 0.000125755 0.00455688 0.00250869 0.00195146 -0.00397082 -0.00424865 -0.00182846 -0.00171176 0.000913454 0.00486456 -0.00637186 -0.00448239 -0.00677692 -0.00300527
internal_weight=2.99117e+07 1.51472e+07 1.47644e+07 8.71509e+06 8.51642e+06 5.40851e+06 5.39846e+06 6.43214e+06 3.30658e+06 6.24801e+06 3.11796e+06 1.94804e+06 3.89081e+06 2.41308e+06 4.04276e+06 728175 2.54133e+06 3.31459e+06 432903 3.83493e+06 3.14888e+06 2.78738e+06 361499 298958 1.46201e+06 2.88169e+06 2.25963e+06 398924 1.86071e+06 319807
internal_count=29911659 15147226 14764433 8715086 8516420 5408509 5398462 6432140 3306577 6248013 3117958 1948037 3890807 2413083 4042764 728175 2541333 3314589 432903 3834930 3148875 2787376 361499 298958 1462011 2881686 2259634 398924 1860710 319807
is_linear=0
shrinkage=0.05


Tree=8
num_leaves=31
num_cat=0
split_feature=21 31 31 21 30 19 31 19 30 19 21 31 28 31 28 3 3 28 21 19 19 19 28 21 28 21 21 21 19 3
split_gain=83966 12579.7 9156.44 4452.69 4067.77 3592.57 3238.39 3135.54 1865.01 1786.55 1591.19 1443.44 1419.72 1023.74 1011.12 976.322 939.251 902.832 830.9 779.575 789.492 754.218 727.861 727.039 699.049 691.552 690.777 691.284 790.045 613.378
threshold=-1.0000000180025095e-35 76.933418273925795 59.216365814208991 0.00027434097137302166 25.352725028991703 208.50000000000003 95.552196502685561 520.50000000000011 19.231032371521 567.50000000000011 -0.00063901377143338312 131.7985763549805 0.012726583052426578 164.93190002441409 0.047062607482075698 0.0013036904274486007 0.0032847839174792175 -0.094015341252088533 1.0000000180025095e-35 60.500000000000007 533.50000000000011 48.500000000000007 -0.011649459134787319 -0.00085614543058909465 -0.0055045061744749537 0.001971823396161199 -0.0023065846180543299 -0.00024249542184406889 116.50000000000001 0.0021777508081868295
decision_type=2 10 10 2 10 2 8 2 10 2 2 8 2 10 2 10 8 2 2 2 2 2 2 2 2 2 2 2 2 10
left_child=1 4 8 5 17 18 19 11 -2 26 -9 -3 15 21 -10 -7 22 -1 -4 -5 25 -8 -12 -11 -25 -21 -6 -28 -29 -20
right_child=2 7 3 6 9 12 13 10 14 23 16 -13 -14 -15 -16 -17 -18 -19 29 20 -22 -23 -24 24 -26 -27 27 28 -30 -31
leaf_value=0.0013001101116358899 -0.00078839470847594055 -0.0048713173080622502 -0.0051699081022831255 0.0011566265898857585 -0.0013610256734182954 0.0055191614024489542 0.0015048529253127636 -0.0052764181555843906 0.0020893730029587871 -0.0024852337876901998 -0.0015406192944255285 -0.0072111811511910793 -0.00055424832631959658 0.0082131327999931114 0.000612781548329488 0.0016002424057748603 -0.00079155527407612561 -0.00059267309260659594 0.0097452620053882603 0.0046327970383021238 0.0027598656837472813 0.0056200395254109112 -0.0042470327659473164 0.00053211042290477275 -0.0015558291460589339 0.0024910230007174354 -0.0034570639472023372 -0.0058038563005070719 -0.00044549394435218921 0.0054218390396300123
leaf_weight=975425 1096399 2532246 15013 329527 633891 179078 118902 614060 2885770 681464 400158 891212 787576 377563 1938073 1412545 638477 1779023 121399 2010224 1444156 1757044 655392 783741 820572 463979 2842581 83547 389341 253379
leaf_count=975425 1096399 2532246 15013 329527 633891 179078 118902 614060 2885770 681464 400158 891212 787576 377563 1938073 1412545 638477 1779023 121399 2010224 1444156 1757044 655392 783741 820572 463979 2842581 83547 389341 253379
internal_value=1.31481e-06 -0.00268971 0.00260917 0.00359016 -0.00152262 0.00191104 0.00430531 -0.00452021 0.00107304 -0.00222955 -0.00309588 -0.00548047 0.00118204 0.00583743 0.00149613 0.00204122 -0.00230542 7.76062e-05 0.0063605 0.00349249 0.00368892 0.00535923 -0.00322108 -0.00111702 -0.000535814 0.00423118 -0.00287343 -0.00316258 -0.00139233 0.00682258
internal_weight=2.99118e+07 1.47211e+07 1.51906e+07 9.27038e+06 8.98958e+06 2.76899e+06 6.5014e+06 5.73154e+06 5.92024e+06 6.23514e+06 2.30809e+06 3.42346e+06 2.3792e+06 2.25351e+06 4.82384e+06 1.59162e+06 1.69403e+06 2.75445e+06 389791 4.24789e+06 3.91836e+06 1.87595e+06 1.05555e+06 2.28578e+06 1.60431e+06 2.4742e+06 3.94936e+06 3.31547e+06 472888 374778
internal_count=29911757 14721130 15190627 9270385 8989585 2768990 6501395 5731545 5920242 6235137 2308087 3423458 2379199 2253509 4823843 1591623 1694027 2754448 389791 4247886 3918359 1875946 1055550 2285777 1604313 2474203 3949360 3315469 472888 374778
is_linear=0
shrinkage=0.05


Tree=9
num_leaves=31
num_cat=0
split_feature=21 31 31 19 19 31 31 30 21 21 31 19 19 28 28 28 31 21 19 19 8 21 28 19 3 21 28 21 19 21
split_gain=75992.2 10596.7 9107.66 4307.82 3272.96 2575.61 2436.55 2071.34 1882.24 1526.58 1478.69 1046.83 1038.6 929.014 845.996 832.644 744.524 733.479 951.615 881.635 689.677 1096.05 672.256 648.81 634.013 601.979 600.618 588.39 854.359 617.2
threshold=1.0000000180025095e-35 62.076229095458991 69.463336944580092 579.50000000000011 530.50000000000011 94.255599975585952 43.512145996093757 25.155468940734867 0.00064127825316973041 -0.00028610169829335058 120.46824645996095 600.50000000000011 657.50000000000011 0.014646864961832763 -0.013979515992105005 -0.055959697812795632 98.15362930297853 -0.00024249542184406889 120.50000000000001 64.500000000000014 1.0000000180025095e-35 -0.00028610169829335058 0.041665282100439079 120.50000000000001 0.0018867364851757886 -0.00065359621657989908 0.02441634796559811 0.001675745297688991 164.50000000000003 0.00023223840980790558
decision_type=2 10 8 2 2 10 10 10 2 2 8 2 2 2 2 2 10 2 2 2 8 2 2 2 10 2 2 2 2 2
left_child=1 7 6 5 10 17 13 15 24 16 27 -9 22 -2 -11 -1 -5 19 -19 25 -7 -22 -8 -23 -6 -3 -14 29 -29 -4
right_child=2 3 4 9 8 20 12 11 -10 14 -12 -13 26 -15 -16 -17 -18 18 -20 -21 21 23 -24 -25 -26 -27 -28 28 -30 -31
leaf_value=0.00094073368092727943 0.0014734720897274208 4.708106373049089e-06 0.0028766537695521224 -0.0024535567155269762 0.0036360761110013186 -0.0062070504063274278 0.0030365634916868778 -0.0023153874242780067 0.0046142880959582711 0.00080526767505075469 0.0062965376669713224 -0.00055309982383157407 0.0017011323982974995 -0.00048644626686492542 -0.0017750001559552018 -0.0008189801751343059 -0.0047371864747556705 -0.0066038667494020559 -0.0006964218513413091 -0.0041505328562381578 -0.0056694244933469806 -0.0071223513618749569 0.0016933671156349351 -0.0001872039046600444 0.0012705979955154941 -0.0052625157403391864 -0.00046533197650209238 0.00020041855014479317 0.0042584715305877983 0.0048700212409238698
leaf_weight=1424375 911161 225777 477446 1125030 344243 1729795 2131982 2446445 767211 463540 1124134 1285531 790577 1797149 1009381 1272997 522860 82215 398959 2361640 501901 41335 1654675 183021 1599701 71385 537332 211269 335990 2083155
leaf_count=1424375 911161 225777 477446 1125030 344243 1729795 2131982 2446445 767211 463540 1124134 1285531 790577 1797149 1009381 1272997 522860 82215 398959 2361640 501901 41335 1654675 183021 1599701 71385 537332 211269 335990 2083155
internal_value=3.03694e-06 -0.00248531 0.00255545 -0.00362112 0.00387354 -0.00445119 0.00138557 -0.000945374 0.0025172 -0.00213267 0.00474244 -0.00170835 0.00202769 0.000172926 -0.000962952 0.000110246 -0.00317817 -0.00350246 -0.00170596 -0.00382756 -0.00566409 -0.00437075 0.00244963 -0.0014653 0.00168952 -0.00126065 0.000824467 0.00418029 0.00269194 0.00449836
internal_weight=2.99122e+07 1.51462e+07 1.4766e+07 8.71684e+06 6.94315e+06 5.59603e+06 7.82288e+06 6.42935e+06 2.71116e+06 3.12081e+06 4.23199e+06 3.73198e+06 5.11457e+06 2.70831e+06 1.47292e+06 2.69737e+06 1.64789e+06 3.13998e+06 481174 2.6588e+06 2.45605e+06 726257 3.78666e+06 224356 1.94394e+06 297162 1.32791e+06 3.10786e+06 547259 2.5606e+06
internal_count=29912212 15146187 14766025 8716839 6943149 5596028 7822876 6429348 2711155 3120811 4231994 3731976 5114566 2708310 1472921 2697372 1647890 3139976 481174 2658802 2456052 726257 3786657 224356 1943944 297162 1327909 3107860 547259 2560601
is_linear=0
shrinkage=0.05


Tree=10
num_leaves=31
num_cat=0
split_feature=21 31 31 21 31 31 31 31 21 21 13 13 10 10 21 10 10 31 10 10 31 6 21 13 10 6 21 21 21 31
split_gain=68616 10409.2 7560.51 3832.91 2644.62 2429.04 2331.6 1736.77 1576.85 1464.97 1279.78 1175.01 898.153 876.875 894.081 861.058 805.449 742.895 695.255 574.401 549.582 539.427 532.41 499.468 494.863 456.625 432.619 429.15 427.687 421.693
threshold=-1.0000000180025095e-35 66.936397552490249 63.871738433837898 0.00020160402345936748 99.556419372558608 44.461912155151374 119.11147689819337 37.55647277832032 -0.00028610169829335058 -0.00021265281247906384 0.00052997743478044878 0.00029386661481112247 0.0010509304702281954 -0.0015989991370588539 -0.00033028997131623322 0.0011896286159753802 0.00044979661470279103 164.93190002441409 -0.0017758710891939697 -0.0012256220215931533 213.23937988281253 0.53951680660247814 0.00034205190604552632 0.0011111181811429562 0.0018122007604688408 0.59762555360794078 1.0000000180025095e-35 0.00027434097137302166 -0.00074801029404625286 88.160678863525405
decision_type=2 10 10 2 10 10 8 8 2 2 10 10 8 8 2 10 10 10 10 10 10 8 2 10 8 10 2 2 2 8
left_child=1 5 7 11 8 18 12 24 19 17 -11 26 -5 28 -15 21 -13 -6 -1 -3 -8 27 -17 -10 -2 -21 -4 -9 -7 -14
right_child=2 4 3 6 9 13 20 15 23 10 -12 16 29 14 -16 22 -18 -19 -20 25 -22 -23 -24 -25 -26 -27 -28 -29 -30 -31
leaf_value=0.00082402443319264758 0.0006142327810264044 -0.0026550176277964008 0.0016875988497561047 0.0040893015985854703 -0.0050708862079294828 -0.0012807061405837787 0.0054627898997783933 0.0014472699699314652 -0.0030911122295767617 -0.0063742117952505159 -0.0020116552999821834 0.0018674403080214199 0.0022607221928286239 -0.0029049827544635268 -0.00095062895466935509 -0.0012482555515722013 -0.00035165054422635133 -0.0073214825077867049 -0.00073541526932789777 -0.0045598608934708804 0.0084876073570296588 0.0012787988698250707 0.0011658855305063053 -0.00065591948490938709 -0.0010844837167403949 -0.0029416676213158267 0.0081775499377552963 0.0032403887613892813 0.00079944542124669104 0.003730787163735256
leaf_weight=1432963 844227 1235184 36690 2772557 1785313 1262927 1127185 458010 285818 225991 656477 1316273 1497183 2039940 820703 254414 593157 461609 1425983 1329972 173330 979497 2230578 799821 871074 648832 85676 1230048 307187 723793
leaf_count=1432963 844227 1235184 36690 2772557 1785313 1262927 1127185 458010 285818 225991 656477 1316273 1497183 2039940 820703 254414 593157 461609 1425983 1329972 173330 979497 2230578 799821 871074 648832 85676 1230048 307187 723793
internal_value=7.10286e-07 -0.00243235 0.00235772 0.00337072 -0.0037495 -0.00109003 0.00398025 0.00112965 -0.00294465 -0.0048553 -0.00312895 0.0014825 0.00348911 -0.00182318 -0.0023443 0.00158842 0.00117808 -0.00553329 4.61996e-05 -0.00350116 0.00586601 0.00221227 0.000918711 -0.00129708 -0.000248406 -0.0040293 0.00623212 0.0027539 -0.000873714 0.00273983
internal_weight=2.99124e+07 1.47187e+07 1.51937e+07 8.32584e+06 7.42902e+06 7.2897e+06 6.29405e+06 6.86785e+06 4.29963e+06 3.12939e+06 882468 2.0318e+06 4.99353e+06 4.43076e+06 2.86064e+06 5.15255e+06 1.90943e+06 2.24692e+06 2.85895e+06 3.21399e+06 1.30052e+06 2.66756e+06 2.48499e+06 1.08564e+06 1.7153e+06 1.9788e+06 122366 1.68806e+06 1.57011e+06 2.22098e+06
internal_count=29912412 14718720 15193692 8325844 7429017 7289703 6294048 6867848 4299627 3129390 882468 2031796 4993533 4430757 2860643 5152547 1909430 2246922 2858946 3213988 1300515 2667555 2484992 1085639 1715301 1978804 122366 1688058 1570114 2220976
is_linear=0
shrinkage=0.05


Tree=11
num_leaves=31
num_cat=0
split_feature=21 31 31 19 30 19 31 21 19 30 21 31 21 19 19 10 26 31 28 3 28 10 3 28 21 28 21 10 19 21
split_gain=61838 9432.29 6906.5 3698.94 3000.98 2523.37 1980.54 1406.3 1402.15 1337.69 1291.15 1151.79 1102.56 1506.63 1222.27 952.428 885.63 809.307 763.405 756.033 723.509 700.017 687.089 659.907 641.813 637.965 635.639 577.875 732.583 533.414
threshold=-1.0000000180025095e-35 76.933418273925795 56.05835151672364 617.50000000000011 25.352725028991703 510.50000000000006 86.262691497802749 -0.00052472634706646193 560.50000000000011 17.339055061340336 0.0004376239085104317 142.23299407958987 0.00024291997397085654 172.50000000000003 44.500000000000007 0.0011896286159753802 1.0000000180025095e-35 160.88050079345706 -0.012115963269025086 0.0024506796617060904 -0.11102198064327239 -0.0017016011406667528 0.0014197728014551105 0.0055980405304580936 -0.00089310499606654037 0.0034134380985051398 1.0000000180025095e-35 0.0012914585531689229 116.50000000000001 -0.0015050655347295103
decision_type=2 10 10 2 10 2 8 2 2 10 2 8 2 2 2 10 2 8 2 10 2 8 10 2 2 2 2 10 2 2
left_child=1 4 9 6 20 11 27 -7 21 -2 23 29 13 26 -14 -11 -15 -16 -9 -20 -1 -6 -18 -5 -10 -26 -8 -4 -29 -3
right_child=2 5 3 10 8 7 12 18 24 15 -12 -13 14 16 17 -17 22 -19 19 -21 -22 -23 -24 -25 25 -27 -28 28 -30 -31
leaf_value=0.0013365182566530253 -0.0011779948461784859 -0.0027465958862864055 0.003380927204880823 0.0016545414769882948 -0.0015077690184204422 -0.0043238803030706567 -0.0061485165837811889 -0.00031093036548148991 -0.0022495102875028333 0.0018415534011869798 0.0028833026139433878 -0.0065693045267300847 0.0011878386991423305 -0.00052292222804093086 0.0050224748011411012 0.00038872627154712646 0.0073669466666109896 0.0076900343339812941 -0.0042345937920627913 -0.0014266849275429479 -0.00044397890537437219 -0.002943494515786781 0.0021097838942504624 -0.00020213287278294571 0.00043830374665448587 -0.0015356761086011009 0.0076609098693857132 -0.00011021330911277884 0.0026686269551660152 -0.0046212468471347416
leaf_weight=806895 750722 459042 2178145 1024851 1248825 817535 8759 572490 663832 2214172 1189688 706110 184691 253191 1910255 2299931 82130 334153 413693 570179 1947928 2652583 255563 897792 950731 718712 167865 299666 1137008 2192272
leaf_count=806895 750722 459042 2178145 1024851 1248825 817535 8759 572490 663832 2214172 1189688 706110 184691 253191 1910255 2299931 82130 334153 413693 570179 1947928 2652583 255563 897792 950731 718712 167865 299666 1137008 2192272
internal_value=1.93755e-06 -0.00230739 0.00224015 0.00301674 -0.0012968 -0.00389248 0.00366927 -0.00264475 -0.00190406 0.000776325 0.00158866 -0.00477468 0.00457594 0.00292381 0.00509793 0.00110135 0.00171252 0.00541967 -0.00176269 -0.0026074 7.75273e-05 -0.00248394 0.00338863 0.000787544 -0.000934447 -0.000411504 0.00697563 0.00286748 0.00208899 -0.0042967
internal_weight=2.99094e+07 1.47208e+07 1.51886e+07 9.92376e+06 8.98951e+06 5.73132e+06 6.81143e+06 2.3739e+06 6.23468e+06 5.26482e+06 3.11233e+06 3.35742e+06 3.19661e+06 767508 2.4291e+06 4.5141e+06 590884 2.24441e+06 1.55636e+06 983872 2.75482e+06 3.90141e+06 337693 1.92264e+06 2.33328e+06 1.66944e+06 176624 3.61482e+06 1.43667e+06 2.65131e+06
internal_count=29909409 14720827 15188582 9923757 8989506 5731321 6811426 2373897 6234683 5264825 3112331 3357424 3196607 767508 2429099 4514103 590884 2244408 1556362 983872 2754823 3901408 337693 1922643 2333275 1669443 176624 3614819 1436674 2651314
is_linear=0
shrinkage=0.05


Tree=12
num_leaves=31
num_cat=0
split_feature=21 30 30 19 19 30 21 30 30 28 21 32 19 8 21 21 13 21 19 3 19 19 3 21 19 19 10 21 19 19
split_gain=56093.1 7244.87 6617.35 4228.26 2998.27 1816.51 1521.58 1397.9 1387.27 979.733 931.733 1179.16 847.959 786.696 1124.12 763.447 760.6 704.183 823.354 663.043 645.343 614.875 600.923 584.094 828.917 650.912 575.214 746.155 949.177 586.743
threshold=1.0000000180025095e-35 29.637012481689457 35.06152534484864 607.50000000000011 541.50000000000011 49.675344467163093 0.00067348228185437631 20.544980049133304 71.586215972900405 -0.02916737366467714 -0.00074801029404625286 0.12920145690441134 663.50000000000011 1.0000000180025095e-35 -0.00027581305766943837 -0.00015215712483040986 0.00085352730820886802 0.0018656612955965104 220.50000000000003 0.0032847839174792175 120.50000000000001 654.50000000000011 0.002150369575247169 0.00023223840980790558 92.500000000000014 36.500000000000007 -0.0016672038473188875 -0.00034131956635974342 128.50000000000003 140.50000000000003
decision_type=2 8 8 2 2 8 2 10 8 2 2 2 2 8 2 2 10 2 2 8 2 2 10 2 2 2 10 2 2 2
left_child=1 9 7 5 8 26 22 -2 17 12 -5 15 -1 16 -15 19 -7 23 -19 -12 -16 -9 -6 24 -4 -25 29 -28 -29 -3
right_child=2 3 4 10 6 13 -8 21 -10 -11 11 -13 -14 14 20 -17 -18 18 -20 -21 -22 -23 -24 25 -26 -27 27 28 -30 -31
leaf_value=-0.00018100660992153946 -0.00052082269122441375 0.00022950766440840007 0.0067315257921326411 -0.0029404752517797005 0.0027810168141357088 -0.0063021601608872768 0.0035948635169364448 0.0016583140396563838 0.0050060244432120499 -0.0013298642473180613 -0.0038238407644730328 0.00045398860068073058 0.0021584664730613882 -0.0041661284086290133 -0.0054263174889379647 -0.00059712688701931771 -0.0042812599422281132 0.00022533500532701258 0.0036366109016003501 -0.0013137402255155785 0.00042170903843453662 0.00030954114186791611 0.00082665292562001812 0.0009067625504544821 0.0012829680999852742 0.0040605388967358607 -0.0036038398009728165 -0.005785529541294656 -0.00080516194270788114 -0.0024297842330213157
leaf_weight=2077789 1372005 279601 81853 780486 491514 614241 926006 3249297 1581649 1577127 542753 944650 476061 812986 57739 856731 1925757 376203 333885 510678 257607 1142024 1969145 174660 474145 2591615 1961850 115724 551904 803290
leaf_count=2077789 1372005 279601 81853 780486 491514 614241 926006 3249297 1581649 1577127 542753 944650 476061 812986 57739 856731 1925757 376203 333885 510678 257607 1142024 1969145 174660 474145 2591615 1961850 115724 551904 803290
internal_value=1.98979e-06 -0.00213572 0.00219515 -0.00280535 0.0030422 -0.00349283 0.00186723 0.00087229 0.00375099 -0.000350011 -0.00140955 -0.000990988 0.00025509 -0.00428195 -0.00318323 -0.0017056 -0.00477 0.00325871 0.00182939 -0.00260705 -0.000649108 0.00130755 0.00121705 0.00356419 0.00208525 0.00386143 -0.00271306 -0.00311248 -0.00166855 -0.00174314
internal_weight=2.9911e+07 1.5147e+07 1.4764e+07 1.1016e+07 9.00068e+06 7.3807e+06 3.38666e+06 5.76333e+06 5.61401e+06 4.13098e+06 3.6353e+06 2.85481e+06 2.55385e+06 3.66833e+06 1.12833e+06 1.91016e+06 2.54e+06 4.03236e+06 710088 1.05343e+06 315346 4.39132e+06 2.46066e+06 3.32227e+06 555998 2.76628e+06 3.71237e+06 2.62948e+06 667628 1.08289e+06
internal_count=29910975 15146974 14764001 11015997 9000675 7380699 3386665 5763326 5614010 4130977 3635298 2854812 2553850 3668330 1128332 1910162 2539998 4032361 710088 1053431 315346 4391321 2460659 3322273 555998 2766275 3712369 2629478 667628 1082891
is_linear=0
shrinkage=0.05


Tree=13
num_leaves=31
num_cat=0
split_feature=21 31 31 21 31 19 31 19 21 31 21 10 19 19 13 31 28 19 19 21 10 28 37 28 19 19 21 19 19 19
split_gain=50536.9 7948.13 5889.52 2981.78 2862.6 2118.02 2019.88 1949.48 1279.76 1188.97 1127.02 1308.35 1120.3 1075.9 842.095 833.454 785.606 774.333 834.258 671.044 633.328 613.216 612.354 589.535 563.856 541.097 534.867 533.667 599.786 532.625
threshold=-1.0000000180025095e-35 81.382045745849624 76.549026489257827 0.00022215289936866614 46.037460327148445 204.50000000000003 44.151119232177741 484.50000000000006 -0.0003643197269411757 160.88050079345706 -0.00033028997131623322 -0.0012516406131908295 660.50000000000011 132.50000000000003 0.00029386661481112247 160.88050079345706 0.014646864961832763 40.500000000000007 510.50000000000006 0.00067348228185437631 0.001398152264300734 -0.00082968527567572881 7.2575252056121835 -0.011649459134787319 108.50000000000001 570.50000000000011 1.0000000180025095e-35 100.50000000000001 603.50000000000011 32.500000000000007
decision_type=2 10 10 2 10 2 8 2 2 10 2 10 2 2 10 10 2 2 2 2 10 2 10 2 2 2 2 2 2 2
left_child=1 4 6 5 22 26 16 15 -9 17 11 27 20 -12 -7 29 -2 -5 -19 -20 -8 -16 -1 -10 -22 -18 -4 -6 -29 -3
right_child=2 7 3 9 10 14 12 8 23 -11 13 -13 -14 -15 21 -17 25 18 19 -21 24 -23 -24 -25 -26 -27 -28 28 -30 -31
leaf_value=0.0010958248237829334 0.0012815742309612895 -0.0013403662336328459 -0.0044518468301229415 0.00060445156602116201 0.00047297448986098048 0.0051923445996793702 0.0026231570166132903 -0.0038117218205494818 0.00010335868540596427 0.0063352109171608819 -0.0048949762110569416 -0.0029688662799216125 0.000619635465803269 -0.0002384967737173191 0.0016910911196454427 -0.0064783518923998227 7.6891898514299089e-05 0.0044167225725793178 0.0019465550270055848 0.0041784659584890114 -0.0003662312701570383 -0.00042130472496607535 -0.00044501703281091612 -0.0022566124784493945 0.0018423985081851932 -0.0017802842217539763 0.0064652999427152365 -0.0021791241618689464 -0.00020043003664436165 -0.0043704748264807016
leaf_weight=904702 967268 155233 11806 197277 345385 101851 2696706 1093292 407728 464062 136171 2633598 1675816 1392696 601193 469393 1328914 2248188 823446 569931 354265 801651 2244461 753874 1567511 556392 222354 1452747 520133 2213197
leaf_count=904702 967268 155233 11806 197277 345385 101851 2696706 1093292 407728 464062 136171 2633598 1675816 1392696 601193 469393 1328914 2248188 823446 569931 354265 801651 2244461 753874 1567511 556392 222354 1452747 520133 2213197
internal_value=3.6149e-06 -0.00208387 0.00202706 0.00323851 -0.00123903 0.00149114 0.00122685 -0.00368139 -0.0025839 0.00394463 -0.00183996 -0.00220633 0.00172705 -0.000653279 0.000802711 -0.00455342 0.00012314 0.00365562 0.0038209 0.00285951 0.00212887 0.000483957 -2.34886e-06 -0.00142824 0.00143524 -0.000471192 0.0059146 -0.00134006 -0.00165747 -0.00417189
internal_weight=2.99112e+07 1.47226e+07 1.51886e+07 6.04176e+06 9.62989e+06 1.73886e+06 9.14687e+06 5.09272e+06 2.25489e+06 4.3029e+06 6.48073e+06 4.95186e+06 6.2943e+06 1.52887e+06 1.5047e+06 2.83782e+06 2.85257e+06 3.83884e+06 3.64156e+06 1.39338e+06 4.61848e+06 1.40284e+06 3.14916e+06 1.1616e+06 1.92178e+06 1.88531e+06 234160 2.31826e+06 1.97288e+06 2.36843e+06
internal_count=29911241 14722610 15188631 6041759 9629893 1738855 9146872 5092717 2254894 4302904 6480730 4951863 6294298 1528867 1504695 2837823 2852574 3838842 3641565 1393377 4618482 1402844 3149163 1161602 1921776 1885306 234160 2318265 1972880 2368430
is_linear=0
shrinkage=0.05


Tree=14
num_leaves=31
num_cat=0
split_feature=21 31 31 19 30 21 19 31 21 10 19 19 31 3 28 10 19 3 21 19 28 21 10 19 19 21 19 28 19 8
split_gain=45614.9 6708.79 5824.37 2874.09 2046.23 1995.11 2328.63 1672.83 1447.01 1358.25 1122.99 1038.67 1068.01 961.782 947.223 747.883 740.057 620.004 670.848 589.105 548.592 512.83 651.568 988.381 587.234 511.157 505.398 497.023 480.983 478.929
threshold=1.0000000180025095e-35 60.660276412963874 78.902915954589858 541.50000000000011 24.549702644348148 0.00027434097137302166 192.50000000000003 94.255599975585952 -0.00074801029404625286 -0.0017758710891939697 607.50000000000011 52.500000000000007 131.7985763549805 0.0013036904274486007 -0.013979515992105005 0.0013698868569917979 553.50000000000011 0.0032847839174792175 -0.00015215712483040986 124.50000000000001 0.080172501504421248 -0.00015215712483040986 -0.0008047554874792694 96.500000000000014 72.500000000000014 0.00058401943533681344 502.50000000000006 0.02441634796559811 398.50000000000006 1.0000000180025095e-35
decision_type=2 10 8 2 8 2 2 10 2 10 2 2 10 10 2 10 2 10 2 2 2 2 8 2 2 2 2 2 2 10
left_child=1 9 4 7 20 6 -4 21 -5 16 15 25 26 -8 -10 -6 -1 18 -16 -17 -2 22 23 -3 -23 -7 -13 -12 -11 -9
right_child=2 3 5 8 10 11 13 29 14 28 27 12 -14 -15 17 19 -18 -19 -20 -21 -22 24 -24 -25 -26 -27 -28 -29 -30 -31
leaf_value=-0.00035781354891487277 0.00057548896587035752 0.00018032935033698993 0.0063535392746663713 -0.003567124844929043 0.0026299621256274481 0.0046567578042774919 0.0048170238390372894 -0.0050219470049670143 5.4321124042856353e-05 -0.0019887683283982354 0.0013484053279276455 0.0042381457436404821 0.0058204516309906225 0.00062567032854547548 -0.0039604151851085024 -0.00015251661926317153 0.0014698851290386777 -0.00080815169397341802 -0.0013711549059368684 0.0018422781299970881 -0.00096458144190858075 -0.0071407953096414723 -0.003843383273943483 -0.0029342872598742023 2.6693220281928406e-05 -0.00040513029551369762 0.0028396541752097396 -0.00018662714125885151 -0.0008090083050360632 -0.0034406406390663415
leaf_weight=1711630 1475558 318702 244819 809755 2729873 67008 153328 1612472 1012849 1432582 1287057 1658275 753841 1274746 507832 487658 818788 785498 493115 1535185 950847 32132 1226421 1268351 257592 194923 1058766 893297 2176844 681415
leaf_count=1711630 1475558 318702 244819 809755 2729873 67008 153328 1612472 1012849 1432582 1287057 1658275 753841 1274746 507832 487658 818788 785498 493115 1535185 950847 32132 1226421 1268351 257592 194923 1058766 893297 2176844 681415
internal_value=-1.21591e-06 -0.00192908 0.00197637 -0.00279795 0.00122166 0.00328307 0.00184816 -0.00352837 -0.00170565 -0.000654595 0.00165902 0.00392612 0.00415525 0.00107573 -0.00116716 0.00209004 0.000233583 -0.0018597 -0.00268487 0.00136137 -2.8017e-05 -0.0027715 -0.00297777 -0.00230882 -0.000768354 0.000889851 0.00369321 0.000719489 -0.00127727 -0.00455224
internal_weight=2.99112e+07 1.5146e+07 1.47652e+07 9.00613e+06 9.35948e+06 5.40571e+06 1.67289e+06 5.39708e+06 3.60905e+06 6.13984e+06 6.93307e+06 3.73281e+06 3.47088e+06 1.42807e+06 2.79929e+06 4.75272e+06 2.53042e+06 1.78644e+06 1.00095e+06 2.02284e+06 2.4264e+06 3.1032e+06 2.81347e+06 1.58705e+06 289724 261931 2.71704e+06 2.18035e+06 3.60943e+06 2.29389e+06
internal_count=29911159 15145978 14765181 9006134 9359475 5405706 1672893 5397085 3609049 6139844 6933070 3732813 3470882 1428074 2799294 4752716 2530418 1786445 1000947 2022843 2426405 3103198 2813474 1587053 289724 261931 2717041 2180354 3609426 2293887
is_linear=0
shrinkage=0.05


Tree=15
num_leaves=31
num_cat=0
split_feature=21 31 31 19 31 19 30 21 19 28 21 19 19 31 21 19 19 10 28 21 26 10 19 21 31 30 28 19 37 26
split_gain=41084.9 6208.4 5268.81 2854.91 2220.72 1850.74 1804.71 1375.41 952.032 891.707 823.256 1271.54 948.893 812.539 701.228 864.509 829.548 662.059 635.479 776.317 620.687 576.767 567.26 518.879 507.034 494.833 488.397 479.176 474.293 464.869
threshold=1.0000000180025095e-35 53.434480667114265 77.722824096679702 654.50000000000011 94.255599975585952 506.50000000000006 24.138993263244632 0.00065744304447434853 647.50000000000011 -0.049194881692528718 -0.00017227487842319531 140.50000000000003 44.500000000000007 213.23937988281253 -0.00024249542184406889 108.50000000000001 48.500000000000007 0.001398152264300734 -0.013979515992105005 -0.00066804938251152624 1.0000000180025095e-35 -0.0014152972726151345 492.50000000000006 -0.00042397358629386867 164.93190002441409 16.111951828002933 0.02441634796559811 104.50000000000001 165.01666259765628 -7.198162620625225e-06
decision_type=2 10 8 2 10 2 8 2 2 2 2 2 2 8 2 2 2 10 2 2 2 8 2 2 10 10 2 2 8 2
left_child=1 9 6 4 14 13 25 -7 17 22 12 -12 23 29 16 -16 -3 -8 19 -5 28 -18 -1 -6 -14 -2 -10 -19 -13 -4
right_child=2 3 5 18 10 7 8 -9 26 -11 11 20 24 -15 15 -17 21 27 -20 -21 -22 -23 -24 -25 -26 -27 -28 -29 -30 -31
leaf_value=-0.00018742766080892409 -0.0013596560757481017 -0.00012549797099027708 0.0028401224615420477 -0.0021565517265631474 0.00076181629732323354 0.0012783023020967207 0.0023891963092257072 0.004037604382352151 0.0012393455840748165 -0.0009500626185898755 -0.0077839744186122915 -0.0016405382614745776 -0.0044719902205476066 0.0069475930427840716 -0.0054114426689172712 -0.00028075758329393152 -0.0020226577889987185 -0.00032330589170644552 -0.0017727168514552064 0.00063274957533537509 0.00080785800179706657 -0.0032985505916537181 0.0015017513384823992 -0.0060016109028049099 -0.0064652399841207703 0.00034319127980068844 -0.00041113005563395773 0.0015934543972494757 -0.0065174368987498676 0.0041200722459987437
leaf_weight=1341510 564821 307762 1119195 365966 120690 1711551 2912982 613526 1120060 2528468 91138 188678 1684225 199196 94236 637343 1409325 404068 1726467 783454 195966 2385167 789498 37055 393781 1743553 747222 1688450 67764 1938768
leaf_count=1341510 564821 307762 1119195 365966 120690 1711551 2912982 613526 1120060 2528468 91138 188678 1684225 199196 94236 637343 1409325 404068 1726467 783454 195966 2385167 789498 37055 393781 1743553 747222 1688450 67764 1938768
internal_value=-4.418e-06 -0.00183377 0.00187265 -0.00250842 -0.00301541 0.00308403 0.00113612 0.00200643 0.00154239 -0.000315057 -0.00414162 -0.00239618 -0.00456594 0.00385323 -0.00236787 -0.000941749 -0.00262219 0.00190181 -0.00116627 -0.000255331 -0.00131061 -0.00282468 0.000438373 -0.000827064 -0.00484975 -7.34606e-05 0.00057887 0.00122331 -0.00292954 0.00365164
internal_weight=2.99119e+07 1.51485e+07 1.47634e+07 1.0489e+07 7.61313e+06 5.58224e+06 9.18116e+06 2.32508e+06 6.87278e+06 4.65948e+06 2.7793e+06 543546 2.23575e+06 3.25716e+06 4.83383e+06 731579 4.10225e+06 5.0055e+06 2.87589e+06 1.14942e+06 452408 3.79449e+06 2.13101e+06 157745 2.07801e+06 2.30837e+06 1.86728e+06 2.09252e+06 256442 3.05796e+06
internal_count=29911885 15148493 14763392 10489017 7613130 5582236 9181156 2325077 6872782 4659476 2779297 543546 2235751 3257159 4833833 731579 4102254 5005500 2875887 1149420 452408 3794492 2131008 157745 2078006 2308374 1867282 2092518 256442 3057963
is_linear=0
shrinkage=0.05


Tree=16
num_leaves=31
num_cat=0
split_feature=21 31 31 21 31 31 19 19 21 10 19 21 28 2 28 31 10 31 19 19 19 28 19 19 21 3 6 28 19 21
split_gain=37361.1 6084.46 4404.93 2586.38 2467.97 2058.63 1437.39 1274.92 1145.32 1169.05 1064.24 1049.2 907.452 872.084 760.151 723.574 699.751 611.748 610.301 599.598 559.635 548.522 540.154 534.339 539.88 529.331 525.225 522.417 566.423 500.003
threshold=-1.0000000180025095e-35 87.21728897094728 54.016506195068366 0.0001715237813186832 45.723463058471687 91.325897216796889 128.50000000000003 460.50000000000006 -0.00033028997131623322 -0.0012516406131908295 152.50000000000003 -0.00063901377143338312 0.04517828673124314 0.001335021748673171 0.00041125995630864059 194.01778411865237 0.0010964848916046324 186.67546844482425 589.50000000000011 96.500000000000014 104.50000000000001 -0.00041633874934632326 593.50000000000011 460.50000000000006 0.00078705933992750954 0.0032847839174792175 0.55269315838813793 -0.019903621636331078 564.50000000000011 1.0000000180025095e-35
decision_type=2 10 10 2 10 8 2 2 2 8 2 2 2 10 2 10 10 10 2 2 2 2 2 2 2 8 8 2 2 2
left_child=1 4 12 6 27 16 29 17 9 20 -10 -9 -2 -8 -15 -7 23 -3 -14 -18 -6 -12 -22 -5 -25 -13 -11 28 -1 -4
right_child=2 7 3 5 8 15 13 11 10 26 21 25 18 14 -16 -17 19 -19 -20 -21 22 -23 -24 24 -26 -27 -28 -29 -30 -31
leaf_value=-2.1892046569703405e-05 0.0011335842570033392 -0.0038659035009904253 -0.0060759612514679068 0.0033453874917105473 0.00052694024091811374 0.0035205988756960545 0.0050025593542556996 -0.0043427951217491819 -0.0041447856810577976 -0.0032074165701591684 0.00077326889580639664 -0.0024089833969802919 0.00026052397935044419 0.0012122808305540438 -0.00084172908411659438 0.006241732158096383 -0.00042841561023566248 -0.0063507998209108288 -0.0015916730216548021 0.0018219446657698709 -0.0020143289196172792 -0.001094805542335552 -0.00024101428383254097 0.0013123684224307169 0.0034289697114626033 -0.0003840977063015444 -0.0018529857622715349 -0.00086135044395624816 0.0018113946294688876 0.005948623636970329
leaf_weight=1448126 2581991 2031426 9155 1419023 393627 2717836 95876 540014 182416 1789816 830256 1025612 1650511 839035 972529 268472 343878 282145 608768 2125220 1552774 746047 593628 969570 437140 471005 1193065 1048883 594186 152435
leaf_count=1448126 2581991 2031426 9155 1419023 393627 2717836 95876 540014 182416 1789816 830256 1025612 1650511 839035 972529 268472 343878 282145 608768 2125220 1552774 746047 593628 969570 437140 471005 1193065 1048883 594186 152435
internal_value=-1.40028e-06 -0.0017963 0.00173815 0.00232045 -0.00113805 0.00271553 0.000739169 -0.00336585 -0.00164055 -0.00199441 -0.000529294 -0.00245349 0.000493246 0.000355563 0.000109584 0.00376526 0.00212347 -0.00416898 -0.000238549 0.00150852 -0.00120607 -0.000110856 -0.0015239 0.00266078 0.00197015 -0.00177175 -0.0026657 4.56477e-05 0.000511475 0.00526687
internal_weight=2.99145e+07 1.4723e+07 1.51914e+07 1.03502e+07 1.03728e+07 8.28114e+06 2.06903e+06 4.3502e+06 7.28163e+06 5.52291e+06 1.75872e+06 2.03663e+06 4.84127e+06 1.90744e+06 1.81156e+06 2.98631e+06 5.29483e+06 2.31357e+06 2.25928e+06 2.4691e+06 2.54003e+06 1.5763e+06 2.1464e+06 2.82573e+06 1.40671e+06 1.49662e+06 2.98288e+06 3.0912e+06 2.04231e+06 161590
internal_count=29914465 14723026 15191439 10350169 10372824 8281139 2069030 4350202 7281629 5522910 1758719 2036631 4841270 1907440 1811564 2986308 5294831 2313571 2259279 2469098 2540029 1576303 2146402 2825733 1406710 1496617 2982881 3091195 2042312 161590
is_linear=0
shrinkage=0.05


Tree=17
num_leaves=31
num_cat=0
split_feature=21 31 31 21 19 31 19 31 21 31 28 28 19 21 2 19 3 21 19 19 21 19 19 21 37 21 19 19 21 28
split_gain=33674.4 5599.69 3985.59 2282.84 2135.35 1668.46 1602.83 1467.88 1126.3 978.071 968.4 936.036 792.882 825.644 703.759 662.427 652.535 604.366 588.717 575.626 541.836 802.18 538.362 484.451 481.595 478.315 641.936 622.967 477.391 483.724
threshold=-1.0000000180025095e-35 69.463336944580092 58.937974929809577 0.00027434097137302166 212.50000000000003 117.86474990844728 506.50000000000006 44.151119232177741 -0.00065359621657989908 126.44764328002931 0.012726583052426578 0.051887169480323798 72.500000000000014 0.00073794784839265059 0.0039515183307230481 492.50000000000006 0.0013036904274486007 0.001675745297688991 537.50000000000011 607.50000000000011 -0.0016602629912085829 196.50000000000003 32.500000000000007 0.00078705933992750954 7.2575252056121835 -0.00016205569409066808 72.500000000000014 28.500000000000004 -0.0011362722143530843 -0.06607921794056891
decision_type=2 10 10 2 2 10 2 10 2 10 2 2 2 2 10 2 10 2 2 2 2 2 2 2 10 2 2 2 2 2
left_child=1 7 11 4 -4 12 9 24 -8 20 16 -2 13 -5 -10 17 -6 -14 -9 -13 21 -3 -7 -17 -1 27 -27 -22 -20 -30
right_child=2 6 3 5 10 22 8 18 14 -11 -12 19 15 -15 -16 23 -18 -19 28 -21 25 -23 -24 -25 -26 26 -28 -29 29 -31
leaf_value=0.0011178033499036589 0.0011540871415468613 0.00072875093081239614 0.0044766154239857517 0.003805483152499622 0.0040869374607457841 -0.00035529687976901622 -0.0034050638501730689 -0.0017421920259856221 -0.0026225890174988017 -0.0047596546493790456 -0.00090589623441271699 0.00031498129087417271 0.0035459132951067987 -0.00072929578699093046 -0.00062724378546916474 0.0012834543895882916 0.00087648457626562253 0.0018423398026383314 -0.0020216656831885949 -0.0014797197469585942 6.4480359937644854e-05 -0.0032875469164231636 0.0047412081239377526 0.0028304366527460417 -0.00030248597588557522 -0.0073472306662793092 -0.00064396347279228319 -0.0036941894044545103 0.0023926494667135243 -0.00050575343447674674
leaf_weight=862081 3472187 230728 399389 139063 178227 54308 827725 2974003 632025 973903 789416 1795597 2108482 360689 1469181 1183298 1413769 691456 469710 594760 116292 269554 1124822 884426 1939890 40691 291717 2113379 161130 1349531
leaf_count=862081 3472187 230728 399389 139063 178227 54308 827725 2974003 632025 973903 789416 1795597 2108482 360689 1469181 1183298 1413769 691456 469710 594760 116292 269554 1124822 884426 1939890 40691 291717 2113379 161130 1349531
internal_value=-1.09381e-07 -0.00170424 0.00165147 0.00229358 0.00109337 0.00280339 -0.00273329 -0.000780144 -0.00184287 -0.00337942 0.00052593 0.00062988 0.00242924 0.000532571 -0.00122745 0.00262396 0.00123594 0.00312523 -0.00129742 -0.000131564 -0.00294045 -0.00143522 0.00450645 0.00194517 0.000134487 -0.00323435 -0.0014648 -0.00349814 -0.000629475 -0.000196574
internal_weight=2.99114e+07 1.47215e+07 1.51899e+07 9.32734e+06 2.7808e+06 6.54654e+06 6.9652e+06 7.75634e+06 2.92893e+06 4.03626e+06 2.38141e+06 5.86254e+06 5.36741e+06 499752 2.10121e+06 4.86766e+06 1.592e+06 2.79994e+06 4.95437e+06 2.39036e+06 3.06236e+06 500282 1.17913e+06 2.06772e+06 2.80197e+06 2.56208e+06 332408 2.22967e+06 1.98037e+06 1.51066e+06
internal_count=29911429 14721540 15189889 9327345 2780801 6546544 6965195 7756345 2928931 4036264 2381412 5862544 5367414 499752 2101206 4867662 1591996 2799938 4954374 2390357 3062361 500282 1179130 2067724 2801971 2562079 332408 2229671 1980371 1510661
is_linear=0
shrinkage=0.05


Tree=18
num_leaves=31
num_cat=0
split_feature=27 31 34 33 31 34 28 28 53 8 33 28 31 33 10 42 12 42 34 8 43 10 43 8 33 42 23 33 31 8
split_gain=12187 2678.55 2388.86 1563.95 1397.36 1060.4 953.054 706.429 685.501 595.735 501.982 472.773 469.301 439.808 417.31 388.312 285.199 284.057 274.298 273.693 271.909 261.467 237.186 225.97 213.516 212.623 211.509 233.392 207.867 207.762
threshold=-0.00024583048070780927 89.706386566162124 0.044080615043640144 0.025235063396394256 82.261363983154311 1.0000000180025095e-35 -0.10608636215329169 0.048942977562546737 -2.299067546118749e-05 1.0000000180025095e-35 1.0000000180025095e-35 0.0078264600597322004 243.72145843505862 0.069073460996150984 -0.00060010838205926109 16.500000000000004 0.00071374812978319835 21.500000000000004 0.097764447331428542 1.0000000180025095e-35 1.0000000180025095e-35 0.00087945631821639847 0.500000759959221 1.0000000180025095e-35 0.11188330501317979 17.500000000000004 97866.601562500015 0.12580426037311557 50.771863937377937 -1.0000000180025095e-35
decision_type=2 10 2 2 8 2 2 2 8 8 2 2 10 2 8 2 8 2 2 10 2 10 2 8 2 2 2 2 8 8
left_child=1 6 4 10 7 12 -1 -2 28 16 14 18 21 29 -3 20 -7 -12 19 -5 -15 -6 25 -10 -13 -9 27 -17 -8 -4
right_child=2 3 13 11 5 9 8 22 23 -11 17 24 -14 15 -16 26 -18 -19 -20 -21 -22 -23 -24 -25 -26 -27 -28 -29 -30 -31
leaf_value=0.00072628289443399927 0.0015275029244435146 -0.0029784071023039459 -0.0015582102321857947 -0.0017423348675721199 0.0040347841480089337 0.00043167747524450488 -0.00069226065894003154 -0.00055030108127111712 -0.00064680184722426342 0.0025087705517252206 -0.0020278361695028444 -0.00057728305884555099 0.0067738607023420539 -0.00027638208123413778 -0.00507389705342108 9.4265079713363629e-05 0.0020527133188878682 -0.0040950282841395675 -0.0023170194763264909 0.00073224735155881092 0.00054511942599627802 0.0024885964524453703 0.0011619662299877512 2.611443098840935e-05 0.0013013596149617787 0.00084763396652721978 2.4116176753729977e-05 0.0016290983920571234 -0.0014861130825779311 -7.5311326254291484e-05
leaf_weight=1196605 2489217 614076 375447 262769 526907 845438 1150048 905930 3421502 1213629 1183438 422367 102283 1635111 387714 307038 399605 193373 598165 194375 2623149 568808 488975 1963431 235602 388699 383399 1282142 2915479 636950
leaf_count=1196605 2489217 614076 375447 262769 526907 845438 1150048 905930 3421502 1213629 1183438 422367 102283 1635111 387714 307038 399605 193373 598165 194375 2623149 568808 488975 1963431 235602 388699 383399 1282142 2915479 636950
internal_value=2.99546e-06 -0.001021 0.000997714 -0.00210827 0.00159734 0.00231483 -0.00060313 0.000983295 -0.000771462 0.00172045 -0.00293789 -0.00095647 0.00353464 0.000341276 -0.00378947 0.000498328 0.000951992 -0.00231822 -0.0016123 -0.000690109 0.000229669 0.00323218 0.000223774 -0.000401442 9.53828e-05 -0.000130563 0.00107827 0.00133258 -0.00126156 -0.000625278
internal_weight=2.99117e+07 1.47389e+07 1.51727e+07 4.09188e+06 7.92949e+06 3.65667e+06 1.06471e+07 4.27282e+06 9.45046e+06 2.45867e+06 2.3786e+06 1.71328e+06 1.198e+06 7.24324e+06 1.00179e+06 6.23084e+06 1.24504e+06 1.37681e+06 1.05531e+06 457144 4.25826e+06 1.09572e+06 1.7836e+06 5.38493e+06 657969 1.29463e+06 1.97258e+06 1.58918e+06 4.06553e+06 1.0124e+06
internal_count=29911671 14738944 15172727 4091879 7929491 3656670 10647065 4272821 9450460 2458672 2378601 1713278 1197998 7243236 1001790 6230839 1245043 1376811 1055309 457144 4258260 1095715 1783604 5384933 657969 1294629 1972579 1589180 4065527 1012397
is_linear=0
shrinkage=0.05


Tree=19
num_leaves=31
num_cat=0
split_feature=21 31 31 21 31 31 21 10 13 31 21 10 10 8 13 10 31 21 10 30 10 10 31 10 21 2 21 8 44 2
split_gain=28895.9 4444.38 3796.37 1996.63 2220.73 1462.62 1316.26 1039.56 1023.04 761.146 736.799 710.101 675.32 639.427 632.835 629.371 546.71 541.531 532.659 486.11 481.762 473.245 459.191 414.611 348.72 339.22 307.799 349.52 283.52 281.374
threshold=1.0000000180025095e-35 53.434480667114265 78.902915954589858 -0.00016205569409066808 96.844718933105483 42.893367767333991 0.00027434097137302166 -0.00019497502216836435 0.00029386661481112247 160.88050079345706 0.00031954402220435446 -0.00090211903443559993 -0.0015648785629309712 -1.0000000180025095e-35 0.00071208734880201529 0.00090044489479623746 194.01778411865237 -0.00053782798931933929 0.00040232934406958526 16.54387187957764 0.00033838684612419462 0.00049854564713314186 32.89521789550782 0.0010054679587483408 -0.00040040149178821588 0.007090233964845539 -1.0000000180025095e-35 1.351780747427256e-05 -0.96592590212821949 0.012713348492980005
decision_type=2 10 8 2 10 8 2 10 10 10 2 10 10 10 10 10 10 2 10 8 10 10 10 8 2 10 2 10 2 10
left_child=1 12 5 4 11 19 8 -5 -4 23 21 17 22 -10 26 -12 -6 -3 -15 -2 -21 -7 -1 -8 -13 -25 27 -9 -27 -18
right_child=2 3 6 7 16 10 9 14 13 -11 15 24 -14 18 -16 -17 29 -19 -20 20 -22 -23 -24 25 -26 28 -28 -29 -30 -31
leaf_value=0.0014885200870971647 -0.0012718437763131806 -0.0016361648558024901 0.0064053513251902108 0.00070470959879674253 -0.0033957192274991256 0.0010486658594174012 0.0033891378477863793 -0.0052776952476168227 -0.00041893874634970312 0.0051747301337134568 0.0022884611723370946 -0.0028174196324514769 -0.00083206938156600921 0.002584228912526387 -0.00092065869143968012 0.0011765364149268719 -0.0058206835810343284 0.00025580212854248917 0.00027685131356031882 0.0014687899718309368 -0.00020142552348927816 -0.00080164865186703081 -8.5293578931089874e-05 0.0016113592700172257 -0.0016493474713768119 -0.0010277967237307722 -0.00089332566835216012 -0.00017761559587855529 0.0034420203096111436 0.014974725679525928
leaf_weight=653682 616675 2459848 98462 803678 2342653 936114 1872434 199567 458873 412768 2138149 2012692 2412363 734813 874006 3144256 286821 446901 379236 636520 1341927 547760 1592667 840075 936443 37824 83451 40406 568663 1626
leaf_count=653682 616675 2459848 98462 803678 2342653 936114 1872434 199567 458873 412768 2138149 2012692 2412363 734813 874006 3144256 286821 446901 379236 636520 1341927 547760 1592667 840075 936443 37824 83451 40406 568663 1626
internal_value=-1.91102e-06 -0.00153625 0.00157215 -0.00210707 -0.00244205 0.000963028 0.00262748 -0.000686315 0.00146134 0.00314977 0.00135008 -0.0018999 -0.000251158 0.0011518 -0.00161995 0.00162662 -0.00364868 -0.00134527 0.0017988 -4.61242e-05 0.00033592 0.00036562 0.000372676 0.00289791 -0.00244654 0.00226202 -0.0035095 -0.00441911 0.0031632 -0.00570286
internal_weight=2.99114e+07 1.51468e+07 1.47645e+07 1.04881e+07 8.48698e+06 9.3614e+06 5.40315e+06 2.00111e+06 1.67138e+06 3.73176e+06 6.76628e+06 5.85588e+06 4.65871e+06 1.57292e+06 1.19743e+06 5.2824e+06 2.6311e+06 2.90675e+06 1.11405e+06 2.59512e+06 1.97845e+06 1.48387e+06 2.24635e+06 3.319e+06 2.94914e+06 1.44656e+06 323424 239973 606487 288447
internal_count=29911353 15146804 14764549 10488092 8486984 9361401 5403148 2001108 1671384 3731764 6766279 5855884 4658712 1572922 1197430 5282405 2631100 2906749 1114049 2595122 1978447 1483874 2246349 3318996 2949135 1446562 323424 239973 606487 288447
is_linear=0
shrinkage=0.05


Tree=20
num_leaves=31
num_cat=0
split_feature=21 13 10 21 21 13 52 13 21 13 21 28 42 28 13 10 42 21 51 42 10 28 3 8 42 10 6 6 6 39
split_gain=26081.1 3410.43 2235.17 1612.05 1263.12 1364.2 1179.8 974.466 1071.05 770.061 759.934 724.445 719.363 697.326 668.101 655.811 588.464 573.991 544.36 535.743 503.957 487.798 481.699 453.046 403.884 397.348 433.147 349.733 348.489 319.906
threshold=-1.0000000180025095e-35 0.0024574382696300749 0.0014558690018020572 0.00014131279749562967 -0.00028610169829335058 0.00056045848759822558 34.500000000000007 0.006749239284545184 -0.00073100085137411941 0.00095678539946675311 0.00035369308898225432 0.08740508928894998 21.500000000000004 0.010491131339222194 0.00071208734880201529 -0.00038270038203336293 19.500000000000004 0.00037645769771188503 0.056438526138663299 18.500000000000004 -0.0016322469455190001 -0.031085310503840443 0.0017933382769115271 1.0000000180025095e-35 19.500000000000004 -0.0012256220215931533 0.57410416007041942 0.45223152637481695 0.49607169628143316 0.00014766933600185442
decision_type=2 8 10 2 2 10 8 8 2 8 2 2 2 2 8 10 2 2 10 2 8 2 10 10 2 10 10 10 8 10
left_child=1 4 3 13 9 27 14 8 12 -1 -4 16 20 22 -5 -7 -12 -16 24 -19 -3 -10 -2 -17 -8 -11 -27 -6 -13 -29
right_child=2 7 10 6 5 15 18 -9 21 25 11 28 -14 -15 17 23 -18 19 -20 -21 -22 -23 -24 -25 -26 26 -28 29 -30 -31
leaf_value=-0.0042535644064453917 0.0029316770886657754 -0.00074625966974721275 -0.0012277712904476496 0.0045017978881840602 -0.0098529604951874076 0.00030116552000866243 0.0012952067867260438 0.00064518459567398413 0.0010502733055838627 -0.00163835151884024 0.00096250822874772524 -0.00064721575436808875 -0.0036974942106858416 -0.00092526927263700352 0.0016078302333708357 -0.0021595200386084496 0.0028743636024683027 0.0024892401310669214 -0.0016538853887836079 0.0040164112983284228 -0.0019330281651624922 -0.00060144274830139025 0.00068880877171272059 -0.00028107569234364708 0.0029791537440422146 -0.0031935335757908552 -0.0020279815732723717 -0.0069968685776258619 0.00079227671370763603 -0.0030060632178408632
leaf_weight=677421 306428 2196418 514260 441817 25930 780378 2414312 1119142 709244 1139104 2350181 955633 320864 547259 1376140 920659 485679 2665708 139659 732108 1509341 1208893 1094432 492851 417713 1967303 1340474 62890 750735 249527
leaf_count=677421 306428 2196418 514260 441817 25930 780378 2414312 1119142 709244 1139104 2350181 955633 320864 547259 1376140 920659 485679 2665708 139659 732108 1509341 1208893 1094432 492851 417713 1967303 1340474 62890 750735 249527
internal_value=-7.57027e-07 -0.00150063 0.00145255 0.00188092 -0.00223164 -0.00131804 0.00218851 -0.000708289 -0.000963095 -0.00268309 0.000593891 0.000800143 -0.0014263 0.000588189 0.00264156 -0.000862259 0.00128996 0.00246939 0.00139332 0.00281831 -0.00122964 9.27958e-06 0.00117946 -0.00150458 0.0015436 -0.00244384 -0.00272121 -0.00427319 -1.38799e-05 -0.0038097
internal_weight=2.99125e+07 1.47204e+07 1.51921e+07 1.01356e+07 7.65654e+06 2.53224e+06 8.18746e+06 7.0639e+06 5.94476e+06 5.1243e+06 5.05649e+06 4.54223e+06 4.02662e+06 1.94812e+06 5.21577e+06 2.19389e+06 2.83586e+06 4.77396e+06 2.97168e+06 3.39782e+06 3.70576e+06 1.91814e+06 1.40086e+06 1.41351e+06 2.83202e+06 4.44688e+06 3.30778e+06 338347 1.70637e+06 312417
internal_count=29912503 14720439 15192064 10135576 7656537 2532235 8187457 7063902 5944760 5124302 5056488 4542228 4026623 1948119 5215773 2193888 2835860 4773956 2971684 3397816 3705759 1918137 1400860 1413510 2832025 4446881 3307777 338347 1706368 312417
is_linear=0
shrinkage=0.05


Tree=21
num_leaves=31
num_cat=0
split_feature=21 31 30 19 19 21 21 10 19 8 28 31 30 28 21 19 35 3 19 21 19 21 19 31 28 3 21 19 19 10
split_gain=23606.4 3784.82 3283.43 1812.34 1784.77 1198.42 1043.69 970.421 1694.26 1109.81 912.717 858.401 747.43 691.224 644.254 617.789 559.605 548.489 543.014 521.362 517.64 496.267 669.982 493.122 465.824 450.332 440.409 547.824 447.022 419.719
threshold=1.0000000180025095e-35 62.660591125488288 33.034156799316413 530.50000000000011 502.50000000000006 -0.00069885991979390372 0.00067348228185437631 0.00090044489479623746 104.50000000000001 -1.0000000180025095e-35 -0.048182699829339974 104.82751846313478 17.339055061340336 -0.0059190501924604169 0.00030822624103166168 80.500000000000014 1.0000000180025095e-35 0.002402787329629064 553.50000000000011 0.00041254717507399624 480.50000000000006 -0.0016602629912085829 188.50000000000003 120.46824645996095 0.024978779256343845 0.0017933382769115271 -0.00015215712483040986 48.500000000000007 24.500000000000004 0.00059883020003326248
decision_type=2 10 8 2 2 2 2 10 2 8 2 10 10 2 2 2 2 10 2 2 2 2 2 10 2 10 2 2 2 10
left_child=1 10 12 7 11 -6 24 9 -9 14 18 21 -2 16 15 -4 -7 -15 -1 -10 -12 22 -3 -21 -5 -11 28 -28 -23 -14
right_child=2 4 3 6 5 13 -8 8 19 25 20 -13 29 17 -16 -17 -18 -19 -20 23 -22 26 -24 -25 -26 -27 27 -29 -30 -31
leaf_value=-0.00024896718450290997 -0.0010613744823183338 0.00087239655394726686 0.0048823054342984722 0.00097949408925185355 -0.0027721043155757141 -0.0015829388192291191 0.0024163330455102957 -0.00047117954465589494 4.93392328587414e-05 0.0053484002529533177 -0.0015953781596092895 -0.0036510223830113729 0.0013061213548220519 -0.0028741784339933632 0.0027487695873585384 -0.00057005149965320891 0.00069980354822852132 -0.00082369733221983928 0.0012799893455213741 0.0024570439128825177 -0.00042720003796587071 0.00049811272858065381 -0.0024250889662337876 0.004929077897604054 -0.00050882815003943055 0.0034406587302356646 -0.0078882122196992591 -0.00013259081133167524 -0.0029460880103287426 0.0002849311935552456
leaf_weight=1911706 745895 274829 61108 1949333 983933 370056 1086484 621900 196066 378254 1802363 1627609 1568400 483241 699132 346433 977990 1003311 834055 1653795 2001446 98566 350447 229800 719859 1700403 24780 279422 2123829 2807310
leaf_count=1911706 745895 274829 61108 1949333 983933 370056 1086484 621900 196066 378254 1802363 1627609 1568400 483241 699132 346433 977990 1003311 834055 1653795 2001446 98566 350447 229800 719859 1700403 24780 279422 2123829 2807310
internal_value=1.93867e-06 -0.00138481 0.0014247 0.00196812 -0.00207462 -0.00126865 0.00110989 0.00251564 0.00181853 0.00310685 -0.000479248 -0.00271852 0.000401581 -0.000746767 0.0018277 0.000247531 7.31357e-05 -0.00149029 0.000215464 0.00250326 -0.000980728 -0.00223697 -0.000975707 0.00275867 0.000578096 0.00378785 -0.00254909 -0.000764677 -0.00279332 0.000650968
internal_weight=2.99118e+07 1.51476e+07 1.47642e+07 9.64257e+06 8.59801e+06 3.81853e+06 3.75568e+06 5.88689e+06 2.70156e+06 3.18533e+06 6.54957e+06 4.77948e+06 5.1216e+06 2.8346e+06 1.10667e+06 407541 1.34805e+06 1.48655e+06 2.74576e+06 2.07966e+06 3.80381e+06 3.15187e+06 625276 1.8836e+06 2.66919e+06 2.07866e+06 2.5266e+06 304202 2.2224e+06 4.37571e+06
internal_count=29911755 15147583 14764172 9642567 8598013 3818531 3755676 5886891 2701561 3185330 6549570 4779482 5121605 2834598 1106673 407541 1348046 1486552 2745761 2079661 3803809 3151873 625276 1883595 2669192 2078657 2526597 304202 2222395 4375710
is_linear=0
shrinkage=0.05


Tree=22
num_leaves=31
num_cat=0
split_feature=21 31 31 19 30 31 19 21 19 26 21 28 19 21 19 21 19 21 19 21 31 21 19 28 19 6 28 28 2 21
split_gain=21275.2 3779.16 2872.95 1823.47 1506.47 1078.9 1004.61 920.584 893.292 686.687 789.996 571.087 563.289 549.945 524.028 847.725 519.459 485.982 504.366 629.941 469.653 460.833 442.201 440.497 438.693 426.656 450.338 425.054 420.234 402.44
threshold=-1.0000000180025095e-35 81.382045745849624 51.352838516235359 711.50000000000011 25.155468940734867 101.04409408569337 457.50000000000006 -0.0003643197269411757 533.50000000000011 -1.0000000180025095e-35 0.00030822624103166168 0.020639900118112568 573.50000000000011 -0.0012171401758678255 24.500000000000004 -0.00028610169829335058 116.50000000000001 0.00015137316222535449 48.500000000000007 0.00051537898252718161 186.67546844482425 -0.0020898899529129262 216.50000000000003 0.0029668221250176434 52.500000000000007 0.51944187283515941 0.048018051311373718 -0.0059190501924604169 0.0022117240587249403 -0.00024249542184406889
decision_type=2 10 8 2 10 10 2 2 2 2 2 2 2 2 2 2 2 2 2 2 10 2 2 2 2 10 2 2 10 2
left_child=1 4 11 5 -1 17 14 -8 21 10 16 -2 -13 -10 15 -3 -7 24 19 -19 -16 22 -6 -15 -4 26 -20 -9 -29 -23
right_child=2 6 3 -5 8 9 7 27 13 -11 -12 12 -14 23 20 -17 -18 18 25 -21 -22 29 -24 -25 -26 -27 -28 28 -30 -31
leaf_value=0.0002287802240894674 0.0009549395131558258 0.001870240365758288 0.0059505495641677085 0.00048620590905533423 0.00059509622813926554 0.004723298377590732 -0.0027047102366286394 0.00027489887556922507 -0.0019746970860103495 0.0035424340664803838 0.0030834500051086962 0.00022838512824251806 -0.0013738498913468838 0.00043579842319259142 -0.003056920427733284 -0.0076301153702039775 -0.00081072260965874574 0.0043683521330365425 0.0029853965215874117 -0.00083028326870500369 -0.0052832733777949913 -0.0021209094385794096 -0.0017441160367995053 -0.00097163513111512146 5.4864487846039304e-05 0.0015834023130251126 0.0014990355349349021 -0.004995878115002763 -0.0011368864745686467 -0.00058032728809879911
leaf_weight=2697584 1619646 110446 33372 2284418 409394 49369 1194388 551919 500483 1655138 489111 1895279 771971 1346390 2273987 29810 300199 71420 1560352 316325 264484 2831083 398834 946917 575867 2810117 756925 80176 587409 498625
leaf_count=2697584 1619646 110446 33372 2284418 409394 49369 1194388 551919 500483 1655138 489111 1895279 771971 1346390 2273987 29810 300199 71420 1560352 316325 264484 2831083 398834 946917 575867 2810117 756925 80176 587409 498625
internal_value=-1.80976e-06 -0.0013563 0.00131099 0.00174218 -0.000773716 0.00207509 -0.00245788 -0.00171806 -0.00116386 0.00295181 0.00178615 0.000214361 -0.000235337 -0.000473058 -0.00312453 -0.000149186 -2.89763e-05 0.00171809 0.00186613 0.000127294 -0.00328891 -0.00163025 -0.000559205 -0.000145328 0.000377943 0.00199762 0.0024999 -0.000751696 -0.00160045 -0.00189022
internal_weight=2.99114e+07 1.47219e+07 1.51895e+07 1.09026e+07 9.62931e+06 8.6182e+06 5.09262e+06 2.41389e+06 6.93173e+06 2.49382e+06 838679 4.2869e+06 2.66725e+06 2.79379e+06 2.67873e+06 140256 349568 6.12438e+06 5.51514e+06 387745 2.53847e+06 4.13794e+06 808228 2.29331e+06 609239 5.12739e+06 2.31728e+06 1.2195e+06 667585 3.32971e+06
internal_count=29911438 14721929 15189509 10902613 9629310 8618195 5092619 2413892 6931726 2493817 838679 4286896 2667250 2793790 2678727 140256 349568 6124378 5515139 387745 2538471 4137936 808228 2293307 609239 5127394 2317277 1219504 667585 3329708
is_linear=0
shrinkage=0.05


Tree=23
num_leaves=31
num_cat=0
split_feature=21 31 31 19 31 21 31 19 21 19 21 19 31 21 28 26 21 21 19 21 19 26 21 19 28 21 19 28 21 19
split_gain=19271.7 3469.64 2577.68 1515.71 1469.84 1130.36 861.375 795.246 881.94 758.453 632.017 621.586 572.546 555.228 510.733 487.565 474.292 469.99 812.162 422.683 676.736 478.246 491.001 418.759 412.504 423.376 392.434 440.857 385.521 571.289
threshold=-1.0000000180025095e-35 87.21728897094728 69.463336944580092 496.50000000000006 44.151119232177741 0.00067348228185437631 35.979679107666023 422.50000000000006 -0.00069885991979390372 527.50000000000011 -0.00074801029404625286 573.50000000000011 160.88050079345706 -0.0020898899529129262 -0.0037970627890899773 7.6412993621488584e-06 0.0026481406530365352 -0.0013686115271411834 140.50000000000003 0.001675745297688991 192.50000000000003 -7.198162620625225e-06 0.00019154971232637766 212.50000000000003 0.020110216923058036 0.00089482619659975182 422.50000000000006 -0.1167917028069496 -0.00024249542184406889 64.500000000000014
decision_type=2 10 10 2 10 2 10 2 2 2 2 2 8 2 2 2 2 2 2 2 2 2 2 2 2 2 2 2 2 2
left_child=1 4 6 12 26 -5 -2 17 -9 13 -11 16 19 23 -12 -10 -8 18 -3 21 -21 22 -4 -6 -13 -26 -1 -28 -15 -30
right_child=2 7 3 5 9 -7 11 8 15 10 14 24 -14 28 -16 -17 -18 -19 -20 20 -22 -23 -24 -25 25 -27 27 -29 29 -31
leaf_value=-0.0004337503440407244 -0.00046017262877471503 0.0014703353024945482 -0.0002533132038273083 0.00058055567024409608 0.00071506455052603433 0.0027159065258789074 0.0014927653387552208 -0.00356056169683607 -0.0017483334203873824 -0.0014978429447829508 0.00078184217772310168 0.00084651594350364451 0.0042084190975380832 -0.0020620011881782373 -0.00082712324407439516 0.00019839121944208654 7.4363828067190778e-05 -0.0035033988882586689 -0.0033936633173799902 -0.0006950190633317351 0.0027215426349402939 0.0031181393450078693 0.0023272168166508455 -0.0014888184751758651 -0.001332132629994277 0.00065848569129890299 0.0024138273263822761 0.00029941819145093814 -0.0054572192724925053 -8.2328712917842411e-05
leaf_weight=1334276 1480773 139250 230197 2413834 414235 833860 3402070 545391 1247922 1125751 998204 1251549 477005 3057872 974927 433283 712911 1761370 223624 271029 311497 1789172 924812 449311 626365 465678 313475 1154330 54941 492840
leaf_count=1334276 1480773 139250 230197 2413834 414235 833860 3402070 545391 1247922 1125751 998204 1251549 477005 3057872 974927 433283 712911 1761370 223624 271029 311497 1789172 924812 449311 626365 465678 313475 1154330 54941 492840
internal_value=5.92779e-07 -0.00128863 0.00124995 0.00193147 -0.000791422 0.00112883 0.000627486 -0.00247372 -0.00181342 -0.00115363 -0.000552507 0.00087686 0.00258254 -0.00157044 -1.31376e-05 -0.00124661 0.00124704 -0.00316582 -0.00152708 0.00236261 0.00113191 0.0026061 0.00181289 -0.000431611 0.000226873 -0.000483256 0.000186854 0.000751017 -0.00184317 -0.000621552
internal_weight=2.99118e+07 1.4721e+07 1.51908e+07 7.25141e+06 1.03702e+07 3.24769e+06 7.93935e+06 4.35084e+06 2.2266e+06 7.56808e+06 3.09888e+06 6.45857e+06 4.00371e+06 4.4692e+06 1.97313e+06 1.6812e+06 4.11498e+06 2.12424e+06 362874 3.52671e+06 582526 2.94418e+06 1.15501e+06 863546 2.34359e+06 1.09204e+06 2.80208e+06 1.4678e+06 3.60565e+06 547781
internal_count=29911754 14721002 15190752 7251406 10370162 3247694 7939346 4350840 2226596 7568081 3098882 6458573 4003712 4469199 1973131 1681205 4114981 2124244 362874 3526707 582526 2944181 1155009 863546 2343592 1092043 2802081 1467805 3605653 547781
is_linear=0
shrinkage=0.05


Tree=24
num_leaves=31
num_cat=0
split_feature=21 31 31 19 31 30 19 21 19 28 21 19 19 21 21 19 19 6 31 8 28 28 31 19 3 21 10 19 8 21
split_gain=17351.5 2959.18 2630.9 1540.53 1092.41 1057.64 968.487 939.857 663.292 578.653 575.988 994.032 780.307 515.713 476.81 655.332 626.846 475.272 474.602 459.167 445.365 442.23 412.95 411.71 365.462 359.603 343.758 1085.51 436.374 388.577
threshold=1.0000000180025095e-35 54.560363769531257 82.261363983154311 693.50000000000011 95.552196502685561 27.635762214660648 476.50000000000006 0.00067348228185437631 603.50000000000011 -0.02916737366467714 -0.00017227487842319531 132.50000000000003 52.500000000000007 -0.00043602840742096299 -0.00024249542184406889 92.500000000000014 44.500000000000007 0.60996681451797496 213.23937988281253 1.0000000180025095e-35 -0.032461669296026223 -0.0059190501924604169 34.274478912353523 496.50000000000006 0.0018560290336608889 0.0026481406530365352 0.0008399026410188527 108.50000000000001 -1.0000000180025095e-35 0.00030822624103166168
decision_type=2 10 8 2 8 8 2 2 2 2 2 2 2 2 2 2 2 10 8 10 2 2 8 2 10 2 10 2 10 2
left_child=1 9 5 4 14 22 18 24 25 23 12 -12 13 -6 16 -16 -3 20 26 -13 -18 -5 -2 -1 -8 -7 28 -28 -4 -29
right_child=2 3 6 21 10 8 7 -9 -10 -11 11 19 -14 -15 15 -17 17 -19 -20 -21 -22 -23 -24 -25 -26 -27 27 29 -30 -31
leaf_value=-0.0001715041682002244 -0.0007431556936411107 0.0005269989675281754 0.0018782188575550036 0.00016159885104040313 0.0015320525038244293 0.0016236521283692136 0.0022086740038359215 0.0031407030580242138 0.00037998871800170984 -0.00080937887195781696 -0.0064208894481851608 -0.0015149142605679867 -0.0034218452715480889 -0.0046758089615900949 -0.0047461326440493704 3.819876551259248e-05 -0.0016138465348811725 -0.00099527570511631787 0.0052190042021897053 0.0018219550072474022 -0.0028401910705197408 -0.0012075499068388241 0.00042526054031578664 0.0010834753954793368 0.00039480714678944199 0.00016107603104408493 -0.00082773252894997006 -0.0014921282498757322 0.0037392858825526843 0.0031131099272906884
leaf_weight=1773927 1143464 276359 469553 1131064 136046 3936066 353402 568533 2056618 2080379 83841 351284 2089263 44354 79527 714861 1418863 1004031 188164 145901 1548581 1232302 2232844 1034672 1296486 470551 266317 48654 957399 778799
leaf_count=1773927 1143464 276359 469553 1131064 136046 3936066 353402 568533 2056618 2080379 83841 351284 2089263 44354 79527 714861 1418863 1004031 188164 145901 1548581 1232302 2232844 1034672 1296486 470551 266317 48654 957399 778799
internal_value=-5.22643e-07 -0.00118963 0.00121906 -0.00167217 -0.00200749 0.000746774 0.00216216 0.00138752 0.00112144 -0.000177339 -0.00278981 -0.001385 -0.00314942 5.44508e-06 -0.00156518 -0.000440788 -0.00177545 -0.00193567 0.00279654 -0.000535629 -0.00225384 -0.000552292 2.95412e-05 0.000290817 0.000783359 0.00146748 0.00261568 0.00194866 0.00312692 0.00284228
internal_weight=2.99121e+07 1.51453e+07 1.47668e+07 1.02563e+07 7.89291e+06 9.83954e+06 4.92731e+06 2.21842e+06 6.46324e+06 4.88898e+06 2.85069e+06 581026 2.26966e+06 180400 5.04222e+06 794388 4.24783e+06 3.97148e+06 2.70889e+06 497185 2.96744e+06 2.36337e+06 3.37631e+06 2.8086e+06 1.64989e+06 4.40662e+06 2.52072e+06 1.09377e+06 1.42695e+06 827453
internal_count=29912105 15145255 14766850 10256277 7892911 9839543 4927307 2218421 6463235 4888978 2850689 581026 2269663 180400 5042222 794388 4247834 3971475 2708886 497185 2967444 2363366 3376308 2808599 1649888 4406617 2520722 1093770 1426952 827453
is_linear=0
shrinkage=0.05


Tree=25
num_leaves=31
num_cat=0
split_feature=21 31 31 21 31 31 8 10 19 19 6 31 21 10 19 19 21 19 19 28 19 21 28 51 31 19 10 6 19 21
split_gain=15714.4 2671.65 2402.02 1973.85 1541.21 1016.34 719.157 687.126 770.573 754.957 687.923 623.454 620.644 574.493 532.945 517.913 495.937 1007.33 804.13 465.702 437.779 430.254 418.257 386.354 378.922 376.261 374.211 489.952 476.724 371.748
threshold=7.4597082857508226e-05 82.261363983154311 50.771863937377937 -0.00016205569409066808 104.82751846313478 44.779785156250007 1.0000000180025095e-35 -0.00084337548469193269 355.50000000000006 84.500000000000014 0.46126964688301092 194.01778411865237 -0.00053782798931933929 -0.00019497502216836435 28.500000000000004 705.50000000000011 0.00030822624103166168 172.50000000000003 68.500000000000014 -0.019903621636331078 631.50000000000011 -0.00074801029404625286 0.0038627234753221278 0.054518572986125953 194.01778411865237 510.50000000000006 0.0010964848916046324 0.46900966763496404 120.50000000000001 0.00068888856912963103
decision_type=2 8 10 2 10 10 10 8 2 2 10 8 2 10 2 2 2 2 2 2 2 2 2 10 10 2 10 8 2 2
left_child=2 5 19 4 7 22 13 9 -9 -4 -10 16 -11 -5 -6 26 17 -3 29 20 -1 -12 23 -2 -16 -24 27 -7 -28 -18
right_child=1 11 3 6 14 15 -8 8 10 12 21 -13 -14 -15 24 -17 18 -19 -20 -21 -22 -23 25 -25 -26 -27 28 -29 -30 -31
leaf_value=1.6363280439307667e-06 0.0014176021967666037 0.0050011203951765889 0.0010118196222044442 0.00021207749424614084 0.0011161563747991519 0.0027673390946959375 0.00076327160389039271 -0.0029744759725916928 -0.0030000300351210769 -0.0015482032796722668 -0.0020356363238970493 0.0042731704312745575 0.00029972772706848898 -0.0016028045219856177 -0.0028604629981148072 0.00018704007597427421 0.0025871850355837596 0.00054942427935088093 0.002660532066964213 -0.0007326750062593856 0.001508645566883453 -0.00031877704471517857 9.1406995042448406e-05 -0.0016437286241108061 -0.0048517399853353314 -0.001323963993770658 -0.00045990093315043237 0.0012878207431250371 0.0012304409777191396 -0.0013763511239982566
leaf_weight=2073143 668919 147024 432284 721420 76608 804123 1039027 1178416 503892 2547239 546204 348894 552987 1102185 1754040 1252992 85320 936347 2742056 1561931 627856 1099587 1333432 121819 276652 724750 520538 1840435 2098923 192875
leaf_count=2073143 668919 147024 432284 721420 76608 804123 1039027 1178416 503892 2547239 546204 348894 552987 1102185 1754040 1252992 85320 936347 2742056 1561931 627856 1099587 1333432 121819 276652 724750 520538 1840435 2098923 192875
internal_value=-1.11735e-06 0.00123566 -0.00106306 -0.00142974 -0.00179463 0.000756299 -0.000286619 -0.00143134 -0.00194688 -0.00094563 -0.00138354 0.00224399 -0.00121858 -0.000884824 -0.00297734 0.00110067 0.00207145 0.00115363 0.00240067 -4.54441e-05 0.000351959 -0.000888591 -3.14588e-05 0.000945935 -0.00313178 -0.000406981 0.00131814 0.00173771 0.000894527 -0.00016063
internal_weight=2.99119e+07 1.38184e+07 1.60935e+07 1.18305e+07 8.96791e+06 9.36593e+06 2.86263e+06 6.86061e+06 3.3281e+06 3.53251e+06 2.14968e+06 4.45252e+06 3.10023e+06 1.8236e+06 2.1073e+06 6.51701e+06 4.10362e+06 1.08337e+06 3.02025e+06 4.26293e+06 2.701e+06 1.64579e+06 2.84892e+06 790738 2.03069e+06 2.05818e+06 5.26402e+06 2.64456e+06 2.61946e+06 278195
internal_count=29911918 13818447 16093471 11830541 8967909 9365931 2862632 6860609 3328099 3532510 2149683 4452516 3100226 1823605 2107300 6517011 4103622 1083371 3020251 4262930 2700999 1645791 2848920 790738 2030692 2058182 5264019 2644558 2619461 278195
is_linear=0
shrinkage=0.05


Tree=26
num_leaves=31
num_cat=0
split_feature=21 31 31 21 31 30 28 10 19 6 19 21 19 21 19 19 19 31 3 37 19 21 28 31 21 21 31 10 19 21
split_gain=14180.1 2394.22 2122.13 1774.04 1453.51 979.238 692.184 580.089 663.023 676.951 605.296 569.518 564.658 668.74 560.006 530.129 468.904 436.039 409.861 405.928 392.952 714.423 388.159 381.314 368.781 328.982 306.413 305.336 585.777 305.803
threshold=7.4597082857508226e-05 82.261363983154311 49.630193710327156 -0.00016205569409066808 98.840461730957045 27.82849216461182 -0.00041633874934632326 -0.00084337548469193269 296.50000000000006 0.56522393226623546 88.500000000000014 -0.00053782798931933929 464.50000000000006 0.00067348228185437631 24.500000000000004 32.500000000000007 567.50000000000011 186.67546844482425 0.0016864000353962185 6.5633175373077401 152.50000000000003 1.0000000180025095e-35 0.082560680806636824 164.93190002441409 0.0024567439686506991 0.00038785312790423637 27.547261238098148 0.0008399026410188527 124.50000000000001 0.00030822624103166168
